
\data\
ngram 1=6854
ngram 2=29350
ngram 3=34741

\1-grams:
-4.652879	'AND	-1.09099
-4.384033	'EAT	-1.145176
-4.719826	'EVERYONE	-1.28761
-4.652879	'EVERYTHING	-1.08725
-4.050819	'M	-1.461023
-4.895917	'MUMMY'	-0.6541005
-4.895917	'POPPY'	-0.6541005
-4.895917	'SUPER	-0.6989604
-4.895917	'UNDER	-0.6989645
-1.008075	</s>
-99	<s>	-4.840152
-1.702723	A	-3.793253
-4.895917	AARON	-0.6962017
-4.418796	ABANDON	-1.113762
-4.083004	ABANDONED	-1.575739
-4.456584	ABANDONS	-1.073582
-5.497977	ABATTE	-0.3010286
-5.497977	ABIGAIL	-0.2982616
-5.020855	ABILITY	-0.5821891
-3.245124	ABLE	-2.243032
-5.196947	ABORT	-0.4712159
-2.37217	ABOUT	-3.677054
-4.219223	ABOVE	-1.47897
-4.594887	ABRADED	-0.9456955
-4.799007	ABRAHAM	-0.8830924
-4.418796	ABRUPTLY	-1.105396
-3.835219	ABSOLUTELY	-1.671029
-5.497977	ABUSE	-0.2933222
-5.497977	ABYSS	-0.2561605
-5.196947	ACCELERATE	-0.4770964
-4.594887	ACCEPT	-0.9483371
-4.594887	ACCEPTED	-1.142886
-4.799007	ACCESS	-0.7191485
-3.966498	ACCIDENT	-1.487882
-3.906912	ACCIDENTS	-1.596206
-4.799007	ACCOMMODATION	-0.8770408
-4.719826	ACCOMPLISH	-0.9047399
-5.497977	ACCORDING	-0.2890839
-4.321886	ACCOUNT	-1.116718
-4.799007	ACCOUNT'S	-0.882558
-5.497977	ACCURACY	-0.2561605
-5.020855	ACCURATELY	-0.6009977
-5.020855	ACCUSATIONS	-0.5571905
-4.719826	ACCUSE	-1.285798
-4.497977	ACCUSED	-1.27579
-5.020855	ACCUSING	-0.6009687
-3.979463	ACCUSTOMED	-1.519533
-5.497977	ACE	-0.3010024
-5.497977	ACHES	-0.2561605
-4.456584	ACHIEVE	-1.518505
-4.799007	ACHIEVED	-0.7780505
-5.196947	ACHIEVEMENT	-0.472085
-5.196947	ACHIEVEMENTS	-0.4763134
-5.020855	ACNE	-0.5992917
-4.050819	ACOUSTICS	-1.461948
-4.719826	ACQUAINTED	-1.285213
-4.799007	ACQUIRE	-0.8830703
-5.497977	ACQUIRED	-0.3009734
-5.196947	ACROBAT	-0.4766961
-3.543734	ACROSS	-1.92703
-3.854524	ACT	-1.644536
-5.196947	ACTED	-0.4762401
-4.497977	ACTING	-1.040511
-5.196947	ACTION	-0.472085
-4.456584	ACTIONS	-1.034289
-5.497977	ACTIVATING	-0.2711242
-4.895917	ACTIVITIES	-0.6933708
-4.497977	ACTIVITY	-1.040943
-5.497977	ACTRESS	-0.2937125
-5.196947	ACTUAL	-0.4770633
-4.175757	ACTUALLY	-1.520204
-5.497977	ACUITY	-0.2982616
-5.497977	AD	-0.2561605
-4.652879	ADAM	-0.9601432
-5.196947	ADAPT	-0.4472155
-4.652879	ADD	-0.9008752
-4.799007	ADDED	-0.7100575
-5.196947	ADDICTED	-0.4634842
-5.196947	ADDICTIVE	-0.4763631
-4.719826	ADDRESS	-0.9052206
-5.497977	ADDRESSES	-0.3009886
-5.196947	ADEN	-0.477113
-5.497977	ADJECTIVES	-0.2561605
-4.719826	ADJUSTED	-1.284901
-5.497977	ADJUSTING	-0.2985393
-4.895917	ADMINISTRATION	-0.6525955
-4.799007	ADMIT	-0.8775457
-5.196947	ADMITTED	-0.4715221
-5.497977	ADORABLE	-0.2561605
-4.895917	ADORNED	-0.6965251
-5.497977	ADRENALINE	-0.2561605
-5.196947	ADULTS	-0.4322518
-5.020855	ADVANCE	-0.5571905
-4.497977	ADVANCING	-1.041221
-4.719826	ADVANTAGE	-0.8241152
-4.652879	ADVENTURE	-1.09184
-4.895917	ADVENTURER	-0.6986912
-4.799007	ADVENTURES	-0.7653165
-5.020855	ADVERTISE	-0.6020559
-5.196947	ADVERTISEMENTS	-0.4757434
-5.196947	ADVICE	-0.4743529
-5.196947	AESTHETICALLY	-0.4770619
-4.719826	AFFECT	-1.286043
-4.799007	AFFECTED	-0.8382753
-4.497977	AFFORDABLE	-1.276046
-3.515706	AFRAID	-2.023658
-3.617163	AFRICA	-1.832923
-3.040095	AFTER	-2.687837
-3.678433	AFTERNOON	-1.767299
-5.020855	AFTERNOONS	-0.6020448
-5.497977	AFTERWORK	-0.3010258
-3.081336	AGAIN	-2.358846
-3.918193	AGAINST	-1.634962
-4.293857	AGE	-1.176085
-5.497977	AGENT	-0.3010286
-4.895917	AGENTS	-0.6541005
-5.497977	AGES	-0.2924829
-4.799007	AGHAST	-0.8382753
-5.196947	AGILITY	-0.4771185
-4.543734	AGITATED	-0.9700942
-3.46055	AGO	-1.960253
-4.799007	AGREE	-0.7761875
-4.652879	AGREED	-1.08725
-4.719826	AGREEMENT	-0.7974613
-5.497977	AGREES	-0.2954308
-5.497977	AGRICULTURAL	-0.3010217
-5.196947	AGRICULTURE	-0.4710172
-4.136249	AHEAD	-1.36138
-5.196947	AHMED	-0.4765731
-4.895917	AHOLD	-0.6912622
-5.196947	AI	-0.4761862
-5.497977	AIDING	-0.3001267
-5.196947	AIMS	-0.4651752
-4.083004	AIN'T	-1.869508
-3.563478	AIR	-1.991719
-5.497977	AIRBNB	-0.2561605
-4.799007	AIRLINES	-0.8830883
-5.196947	AIRLOCK	-0.4770826
-5.497977	AIRPLANE	-0.3009914
-4.895917	AIRPORT	-0.6626343
-5.497977	AIRPORT'S	-0.3010272
-4.799007	AISLE	-0.8820549
-5.497977	AKI	-0.3010286
-4.895917	AL	-0.6989644
-4.418796	ALARM	-1.106528
-4.497977	ALARMED	-1.040594
-5.020855	ALBANY	-0.5571905
-5.020855	ALBERT	-0.601447
-5.497977	ALBUM	-0.3010162
-2.635845	ALCHEMIST	-3.254274
-4.035579	ALCHEMIST'S	-1.476192
-3.929775	ALCHEMISTS	-1.658929
-3.712647	ALCHEMY	-2.183481
-4.799007	ALCOHOL	-0.7257242
-4.895917	ALCOHOLIC	-0.6541005
-5.497977	ALDO	-0.2924829
-5.020855	ALERTED	-0.6012618
-4.652879	ALEX	-1.092822
-4.083004	ALFAYOUM	-1.825781
-4.719826	ALGORITHMS	-0.9487125
-5.196947	ALI	-0.4322518
-4.895917	ALICE	-0.6978897
-5.497977	ALIGN	-0.2997753
-5.196947	ALIGNED	-0.4770992
-5.020855	ALIGNMENT	-0.5571905
-5.196947	ALIKE	-0.4322518
-4.895917	ALISON	-0.6988265
-3.966498	ALIVE	-1.499198
-2.500154	ALL	-3.582403
-5.196947	ALL'S	-0.4771061
-4.799007	ALLERGIC	-0.8711988
-5.196947	ALLERGY	-0.4765538
-4.799007	ALLOW	-0.7761473
-4.020855	ALLOWED	-1.580208
-5.497977	ALLOWS	-0.3010272
-5.497977	ALLUSION	-0.2982616
-3.293857	ALMOST	-2.264978
-3.622916	ALONE	-2.219786
-3.628745	ALONG	-1.96694
-4.351849	ALONGSIDE	-1.586862
-4.719826	ALOUD	-0.8719336
-4.799007	ALPHABET	-0.732418
-3.098303	ALREADY	-2.398044
-4.895917	ALSATIAN	-0.6979077
-3.272667	ALSO	-2.27519
-5.020855	ALTERNATING	-0.6020338
-5.196947	ALTERNATIVE	-0.432163
-5.196947	ALTERNATIVES	-0.4322518
-4.418796	ALTHOUGH	-1.099598
-5.196947	ALUMINIUM	-0.4322518
-4.497977	ALUMNI	-1.040733
-3.052372	ALWAYS	-3.43222
-3.367643	AM	-2.684329
-4.456584	AMANDA	-1.223993
-5.497977	AMATEUR	-0.3010286
-4.719826	AMAZING	-0.8002255
-5.196947	AMBIENT	-0.477073
-5.196947	AMBIGUITIES	-0.4685742
-5.020855	AMBIVALENT	-0.6002127
-5.196947	AMEN	-0.4322518
-4.543734	AMERICA	-1.057968
-4.351849	AMERICAN	-1.125002
-5.020855	AMERICANS	-0.6017287
-5.196947	AMMUNITION	-0.4472155
-3.345688	AMONG	-2.121267
-5.196947	AMORPHOUS	-0.4771185
-4.719826	AMOUNT	-1.27995
-5.020855	AMPLIFIER	-0.6000991
-5.196947	AMY'S	-0.4684236
-2.682399	AN	-3.813825
-5.497977	ANALYSIS	-0.2561605
-4.321886	ANCIENT	-1.646141
-1.710233	AND	-4.140062
-4.384033	ANDALUSIA	-1.101259
-5.020855	ANDERSON	-0.6019372
-5.196947	ANDREAS	-0.4770785
-5.020855	ANDROID	-0.602053
-4.083004	ANGEL	-3.537677
-4.543734	ANGELA	-1.186676
-5.196947	ANGELES	-0.4322518
-4.895917	ANGELS	-0.6541005
-5.020855	ANGER	-0.5571905
-4.456584	ANGRY	-1.034312
-5.020855	ANIMAL	-0.5999272
-3.799007	ANIMALS	-2.093178
-4.719826	ANIMATED	-0.9500834
-5.196947	ANITA	-0.4768438
-5.497977	ANN	-0.2982616
-5.497977	ANNABELLE	-0.2561605
-5.497977	ANNE	-0.2949259
-4.799007	ANNIE	-0.8382753
-4.456584	ANNOUNCE	-1.033041
-4.456584	ANNOUNCED	-1.073582
-5.020855	ANNUAL	-0.6020559
-5.497977	ANONYMOUS	-0.3009499
-3.096576	ANOTHER	-2.857126
-3.844764	ANSWER	-1.596341
-3.026685	ANSWERED	-2.49913
-4.895917	ANSWERS	-0.6541005
-4.652879	ANTELOPE	-0.9607176
-5.196947	ANTELOPES	-0.4757434
-5.497977	ANTENNA	-0.2890839
-4.497977	ANTHONY	-1.285
-5.020855	ANTIBIOTICS	-0.6020504
-3.799007	ANTS	-1.70389
-4.351849	ANXIETY	-1.173595
-5.020855	ANXIOUS	-0.5901139
-4.384033	ANXIOUSLY	-1.143995
-2.909145	ANY	-2.555845
-3.765583	ANYBODY	-2.5132
-4.895917	ANYHOW	-0.6541005
-4.196947	ANYMORE	-1.269792
-3.671902	ANYONE	-1.960822
-3.050819	ANYTHING	-2.974498
-4.497977	ANYWAY	-0.9965231
-4.267528	ANYWHERE	-1.197137
-4.799007	APART	-0.8382753
-4.895917	APARTMENT	-0.6510297
-4.895917	APATHETIC	-0.6541005
-5.497977	APERTURE	-0.2561605
-5.497977	API	-0.2982616
-5.196947	APOCALYPSE	-0.4322518
-5.497977	APOLOGIES	-0.2985393
-4.895917	APOLOGIZE	-0.6541005
-5.196947	APP	-0.4322518
-4.497977	APPARATUS	-1.041143
-4.497977	APPARENT	-1.240183
-4.895917	APPARENTLY	-0.6974551
-4.799007	APPEAL	-0.8711988
-4.050819	APPEAR	-1.455702
-3.773701	APPEARANCE	-1.718471
-3.304852	APPEARED	-2.103913
-5.497977	APPENDIX	-0.2561605
-4.719826	APPLE	-1.28765
-4.652879	APPLES	-1.091472
-4.719826	APPLICATION	-0.7974459
-5.196947	APPLYING	-0.4771185
-4.799007	APPOINTMENT	-0.8825774
-4.497977	APPRECIATE	-1.038524
-5.196947	APPRECIATED	-0.4322518
-4.594887	APPRENTICE	-0.909373
-4.594887	APPROACH	-0.9083559
-3.573698	APPROACHED	-2.026719
-4.594887	APPROACHES	-1.338667
-4.895917	APPROVE	-0.6912622
-5.020855	APPROXIMATE	-0.6020504
-5.497977	APPS	-0.2937125
-5.497977	APPSTORE	-0.2996522
-4.594887	APRIL	-0.9540452
-3.48514	ARAB	-2.337601
-5.020855	ARABIA	-0.6018765
-4.155554	ARABIAN	-1.360688
-3.929775	ARABIC	-3.682596
-4.100037	ARABS	-1.60447
-5.196947	ARCHITECTS	-0.4771185
-5.020855	ARCHITECTURES	-0.5571905
-5.497977	ARCLIGHT	-0.3010286
-5.497977	ARCTIC	-0.3009113
-2.499282	ARE	-3.074308
-4.594887	AREA	-1.13008
-5.196947	AREAS	-0.4694135
-4.155554	AREN'T	-1.457545
-4.895917	ARENT	-0.6989576
-4.799007	ARGUE	-0.7700753
-4.895917	ARGUED	-0.6541005
-4.895917	ARGUING	-0.6971227
-4.799007	ARGUMENT	-0.8831379
-3.953909	ARISE	-1.511433
-4.267528	ARM	-1.314415
-4.083004	ARMED	-1.430848
-3.835219	ARMIES	-1.813294
-4.242704	ARMS	-1.266778
-4.066613	ARMY	-2.269312
-4.719826	AROMA	-1.287531
-4.652879	AROSE	-1.084302
-3.141951	AROUND	-2.487698
-5.196947	AROUSE	-0.477113
-4.652879	AROUSED	-1.092332
-5.196947	ARRANGE	-0.4746305
-5.196947	ARREARS	-0.4322518
-4.895917	ARREST	-0.6541005
-5.020855	ARRESTED	-0.5571905
-4.652879	ARRIVAL	-1.267492
-4.719826	ARRIVE	-1.282622
-4.196947	ARRIVED	-1.752872
-4.719826	ARRIVING	-1.242788
-4.543734	ARROGANTLY	-0.9551305
-4.895917	ARROW	-0.692866
-4.050819	ART	-1.757339
-5.497977	ARTFUL	-0.3010107
-3.929775	ARTICLE	-1.759934
-3.941674	ARTICLES	-1.564528
-5.497977	ARTIFICIAL	-0.3010258
-5.497977	ARTISANAL	-0.3010258
-4.799007	ARTIST	-0.7332252
-2.446824	AS	-2.986031
-5.020855	ASCERTAIN	-0.5721543
-3.844764	ASH	-1.607995
-4.497977	ASHAMED	-1.267439
-5.497977	ASHLEY'S	-0.3010286
-5.196947	ASHTRAY	-0.4710172
-4.155554	ASIDE	-1.293807
-3.476788	ASK	-2.033291
-2.80513	ASKED	-2.873284
-5.196947	ASKEW	-0.4322518
-4.100037	ASKING	-1.460775
-4.020855	ASLEEP	-1.428702
-5.497977	ASPERGER	-0.3010286
-5.497977	ASPHALT	-0.2561605
-5.020855	ASSASSINATED	-0.5571905
-4.719826	ASSEMBLING	-1.2869
-5.497977	ASSERTED	-0.2561605
-4.799007	ASSESSED	-0.8532391
-5.020855	ASSISTANT	-0.6020352
-4.543734	ASSORTMENT	-0.9922922
-4.719826	ASSUMED	-1.280848
-5.497977	ASSUMPTION	-0.2991827
-3.953909	ASSURANCE	-1.511433
-5.497977	ASSURE	-0.2947244
-4.895917	ASTONISHED	-0.6981718
-5.497977	ASTONISHING	-0.2561605
-4.799007	ASTONISHMENT	-0.8745978
-5.196947	ASTRONAUT	-0.4769681
-3.918193	ASTRONOMY	-1.545843
-5.497977	ASYLUM	-0.3004625
-5.020855	ASYMMETRIC	-0.6020462
-2.309892	AT	-3.065942
-4.136249	ATE	-1.471364
-5.497977	ATHLETES	-0.2996522
-5.196947	ATM	-0.4771185
-3.617163	ATMOSPHERE	-1.825209
-4.652879	ATOP	-1.314984
-4.543734	ATTACH	-0.9994643
-4.799007	ATTACK	-0.7744265
-4.799007	ATTACKED	-0.8822415
-4.652879	ATTACKING	-1.062944
-4.594887	ATTACKS	-0.9533392
-3.929775	ATTEMPT	-1.567837
-4.219223	ATTEMPTING	-1.448073
-5.196947	ATTENDANT	-0.4771185
-4.652879	ATTENDED	-1.084152
-3.979463	ATTENTION	-1.473343
-4.594887	ATTENTIVELY	-0.9422964
-5.196947	ATTITUDE	-0.4322518
-4.594887	ATTORNEY	-1.056756
-5.196947	ATTORNEY'S	-0.4770095
-4.456584	ATTRACTS	-1.078871
-5.497977	AUCTION	-0.3009417
-5.196947	AUDIENCE	-0.4322518
-4.719826	AUGUST	-1.28748
-4.543734	AUNT	-1.104981
-5.497977	AUSTRALIA	-0.3010286
-5.020855	AUTHENTICATION	-0.5571905
-5.196947	AUTHOR	-0.4770523
-5.497977	AUTHOR'S	-0.3010231
-4.543734	AUTHORITIES	-1.097093
-4.136249	AUTHORITY	-1.37825
-5.196947	AUTHORS	-0.4770923
-5.497977	AUTISM	-0.2561605
-5.196947	AUTOGRAPH	-0.4771185
-5.020855	AUTOGRAPHS	-0.5571905
-5.497977	AUTOMATED	-0.3010272
-3.906912	AUTOMATIC	-1.557169
-5.497977	AUTOMATICALLY	-0.3009279
-5.497977	AUTONOMOUS	-0.3010134
-5.196947	AUTONOMOUSLY	-0.4322518
-4.799007	AVAILABLE	-0.7310991
-5.497977	AVALANCHE	-0.3009665
-5.020855	AVERAGE	-0.6019289
-4.418796	AVERTING	-1.113044
-3.992827	AVOID	-1.697448
-5.020855	AVOIDED	-0.571299
-5.196947	AWAIT	-0.474364
-4.497977	AWAITS	-1.039778
-4.895917	AWAKE	-0.6967096
-4.219223	AWAKEN	-2.324604
-4.543734	AWAKENED	-0.9998454
-5.020855	AWAKENINGS	-0.60161
-4.006615	AWARE	-1.451725
-3.035579	AWAY	-3.468273
-4.719826	AWED	-1.279111
-5.497977	AWESOME	-0.3010038
-4.719826	AWFUL	-0.8448068
-4.895917	AWFULLY	-0.6988776
-4.418796	AWKWARD	-1.053048
-3.864508	AWOKE	-1.609715
-5.020855	B	-0.5996151
-5.196947	BABBLED	-0.4771185
-5.196947	BABES	-0.4322518
-5.020855	BABIES	-0.600505
-3.671902	BABY	-2.608052
-5.196947	BACHELOR	-0.4694135
-2.77125	BACK	-3.244943
-5.196947	BACKED	-0.4770688
-4.895917	BACKGROUND	-0.6541005
-4.799007	BACKS	-0.8382753
-5.497977	BACKSLASHES	-0.2561605
-5.497977	BACKSTAGE	-0.3005275
-5.497977	BACKUP	-0.3010148
-4.719826	BACKWARDS	-1.242788
-5.196947	BACKYARD	-0.4322518
-4.543734	BACON	-1.06011
-5.196947	BACTERIA	-0.4757351
-3.885193	BAD	-1.982982
-4.321886	BADE	-1.174214
-5.020855	BADGE	-0.5995693
-4.895917	BADLY	-0.6408342
-5.497977	BADMINTON	-0.2561605
-3.885193	BAG	-1.535847
-4.418796	BAGGAGE	-1.434265
-4.035579	BAGS	-1.788378
-4.895917	BAHAMAS	-0.6541005
-5.020855	BAIL	-0.5571905
-4.719826	BAILEY	-1.242788
-4.050819	BAKER	-1.769503
-4.543734	BAKER'S	-0.9997874
-4.136249	BAKERS	-1.376804
-4.293857	BAKERY	-1.653024
-4.895917	BAKING	-0.6541005
-5.196947	BALANCE	-0.4694135
-4.652879	BALDWIN	-0.8514468
-4.497977	BALL	-1.234059
-5.497977	BALLOON	-0.2987696
-5.196947	BALONEY	-0.4759054
-5.497977	BALTIC	-0.3009651
-4.652879	BALTIMORE	-1.04798
-4.799007	BANANA	-0.7781333
-4.799007	BAND	-0.7326524
-4.799007	BANDAGE	-0.882953
-5.196947	BANG	-0.4685742
-4.020855	BANK	-1.518149
-4.895917	BANK'S	-0.6980902
-5.196947	BANKRUPT	-0.4752615
-4.895917	BANKRUPTCY	-0.6541005
-4.652879	BANKS	-1.04798
-5.196947	BANNER	-0.4322518
-3.807781	BAR	-2.474696
-4.719826	BARBARIAN	-1.287593
-5.020855	BARBECUE	-0.5571905
-4.719826	BARE	-0.9051303
-4.719826	BARELY	-1.286798
-5.497977	BARIHUN	-0.2561605
-5.020855	BARN	-0.5571905
-4.895917	BARRIER	-0.6989548
-5.497977	BARRY	-0.3010203
-4.418796	BASE	-1.060519
-4.799007	BASED	-0.8811839
-4.594887	BASELINES	-0.9535825
-4.799007	BASEMAN	-0.8830676
-5.497977	BASEMENT	-0.2561605
-5.020855	BASIC	-0.6014579
-5.020855	BASICALLY	-0.6006074
-5.497977	BASICS	-0.2561605
-4.895917	BASIL	-0.6534604
-4.497977	BASKET	-1.186157
-5.196947	BASS	-0.4322518
-5.196947	BATCAVE	-0.4322518
-4.719826	BATH	-1.242788
-5.196947	BATHED	-0.4746305
-4.895917	BATHROOM	-0.6989645
-5.196947	BATMAN	-0.476935
-5.196947	BATTALION	-0.4322518
-5.497977	BATTERY	-0.3010203
-4.321886	BATTLE	-1.340455
-4.799007	BATTLEFIELD	-0.8382753
-4.652879	BATTLES	-1.092671
-4.594887	BATTLING	-0.9517976
-4.719826	BATTY	-1.242788
-5.497977	BAVARIA	-0.2561605
-5.020855	BAY	-0.5571905
-2.333624	BE	-3.565888
-4.594887	BEACH	-0.8956948
-4.719826	BEAK	-1.28765
-5.497977	BEAN	-0.2982616
-5.020855	BEAR	-0.5565964
-4.895917	BEARD	-0.6541005
-4.895917	BEARDED	-0.6980335
-4.895917	BEARING	-0.6984606
-5.497977	BEASTS	-0.2561605
-4.136249	BEAT	-1.334513
-4.799007	BEATS	-0.8831297
-3.885193	BEAUTIFUL	-1.575528
-4.799007	BEAUTIFULLY	-0.8382753
-3.691797	BECAME	-2.058108
-2.807781	BECAUSE	-2.741017
-4.719826	BECCA	-1.242788
-3.433519	BECOME	-2.317882
-4.418796	BECOMES	-1.105246
-3.906912	BECOMING	-2.035904
-3.712647	BED	-1.845642
-5.497977	BEDDING	-0.2561605
-3.854524	BEDROOM	-1.608205
-4.895917	BEDTIME	-0.6541005
-4.799007	BEEF	-0.8745978
-2.658499	BEEN	-2.791819
-4.384033	BEER	-1.092074
-4.895917	BEES	-0.6530635
-2.97423	BEFORE	-3.477556
-4.418796	BEG	-1.278673
-3.126909	BEGAN	-3.130053
-4.895917	BEGGARS	-0.6989369
-4.083004	BEGIN	-3.574493
-5.497977	BEGINNER	-0.2924829
-4.155554	BEGINNER'S	-1.361644
-4.196947	BEGINNING	-1.251292
-4.594887	BEGINS	-0.9517976
-4.719826	BEHAVE	-0.8405082
-4.456584	BEHAVES	-1.034312
-4.895917	BEHAVIOR	-0.6884441
-5.497977	BEHAVIOUR	-0.3005965
-3.685063	BEHIND	-1.976495
-4.799007	BEHOLD	-0.7315571
-4.895917	BEIGE	-0.690423
-3.594887	BEING	-1.924304
-3.464553	BELIEVE	-1.922059
-3.640644	BELIEVED	-1.852622
-4.719826	BELONG	-0.8311363
-4.384033	BELONGINGS	-1.101259
-5.497977	BELONGS	-0.2890839
-3.895917	BELOW	-1.525226
-4.799007	BELT	-0.8382753
-5.196947	BEN	-0.4322518
-5.497977	BENCH	-0.2949259
-5.020855	BENCHMARK	-0.5571905
-4.652879	BENEATH	-1.090092
-5.020855	BENEFICIARY	-0.5571905
-4.799007	BENEFIT	-0.881594
-4.652879	BENJAMIN	-0.8969439
-4.418796	BENT	-1.101997
-4.006615	BERKSHIRE	-1.505107
-4.895917	BERLIN	-0.6980293
-5.020855	BERMUDA	-0.5571905
-5.196947	BERRY	-0.4771171
-4.652879	BERT	-1.062944
-3.854524	BESIDES	-1.647601
-5.497977	BESSIE	-0.299475
-3.790407	BEST	-2.094475
-3.918193	BET	-1.528086
-5.196947	BETA	-0.477113
-4.799007	BETH	-0.8382753
-4.895917	BETRAYED	-0.6969467
-3.096576	BETTER	-2.340908
-5.020855	BETTING	-0.6000991
-3.558458	BETWEEN	-1.908697
-4.895917	BEVERAGES	-0.6939337
-4.418796	BEYOND	-1.081626
-4.652879	BIBLE	-1.092282
-4.799007	BICYCLE	-0.7289426
-3.885193	BICYCLES	-1.57838
-3.497977	BIG	-1.984329
-4.267528	BIGGER	-1.48938
-4.175757	BIGGEST	-1.7832
-5.196947	BIKE	-0.4322518
-5.196947	BIKED	-0.4768604
-4.799007	BIKER	-0.8798152
-5.497977	BIKINI	-0.2561605
-4.799007	BILL	-0.7746171
-4.895917	BILLBOARDS	-0.6982768
-4.895917	BILLION	-0.6988155
-4.594887	BILLS	-0.9413922
-5.020855	BINARY	-0.60198
-5.497977	BINDING	-0.2711242
-5.497977	BIOLOGICAL	-0.3010162
-5.020855	BIOMETRIC	-0.6020559
-5.196947	BIRCH	-0.477113
-5.196947	BIRCHES	-0.4322518
-5.020855	BIRD	-0.6020504
-3.864508	BIRDS	-1.701831
-5.497977	BIRTH	-0.3010245
-3.895917	BIRTHDAY	-1.56782
-4.456584	BIRTHPLACE	-1.070634
-5.020855	BISCUIT	-0.5992917
-4.799007	BISEXUAL	-0.8758273
-3.640644	BIT	-2.31691
-5.497977	BITCOIN	-0.3010176
-4.719826	BITE	-1.242788
-4.895917	BITES	-0.6970091
-4.719826	BITS	-1.27995
-4.242704	BITTER	-1.224204
-3.652879	BLACK	-2.631157
-4.083004	BLACKENED	-1.429809
-4.083004	BLACKNESS	-1.428919
-4.719826	BLADE	-1.28765
-5.196947	BLADES	-0.4771171
-4.799007	BLAKE'S	-0.8382753
-4.117765	BLAME	-1.546592
-5.497977	BLANKETS	-0.2924829
-5.497977	BLARED	-0.299475
-4.799007	BLASTED	-0.8830428
-5.196947	BLEACHERS	-0.4322518
-3.807781	BLESSING	-2.075592
-4.175757	BLEW	-1.334324
-5.196947	BLIND	-0.4322518
-4.594887	BLINDED	-1.351048
-4.594887	BLINDING	-0.9541528
-5.497977	BLINKED	-0.3010286
-4.895917	BLIZZARD	-0.6208119
-4.594887	BLOCKED	-1.350213
-5.497977	BLOCKERS	-0.2982616
-4.497977	BLOCKING	-1.436587
-5.497977	BLOCKS	-0.2890839
-5.196947	BLOG	-0.4763134
-4.117765	BLOOD	-1.352985
-5.497977	BLOOMING	-0.2561605
-4.799007	BLOTS	-0.8817878
-3.691797	BLOW	-2.59549
-3.918193	BLOWN	-1.590479
-3.543734	BLUE	-2.310439
-5.497977	BLUETOOTH	-0.3010245
-5.196947	BLURRED	-0.4763424
-4.384033	BOARD	-1.100387
-5.196947	BOARDING	-0.4743529
-5.020855	BOARDS	-0.5571905
-4.497977	BOAT	-0.9798774
-5.020855	BOB	-0.6020545
-5.020855	BOBBING	-0.6011332
-5.196947	BOBBY	-0.4746305
-3.678433	BODY	-1.771592
-5.196947	BODYGUARDS	-0.4322518
-5.020855	BOILERPLATE	-0.6020559
-5.020855	BOILING	-0.6018765
-5.196947	BOLD	-0.4771185
-5.497977	BOMBER	-0.2561605
-5.196947	BONDS	-0.4322518
-4.895917	BONES	-0.6948248
-3.327715	BOOK	-2.215722
-4.895917	BOOKKEEPER	-0.6964793
-5.497977	BOOKMARK	-0.2561605
-4.799007	BOOKMARKS	-0.8781086
-3.520253	BOOKS	-1.862355
-5.196947	BOOKSHELF	-0.4322518
-5.497977	BOOMED	-0.2561605
-5.020855	BOOTLEGGER	-0.5571905
-5.020855	BOOTLOADER	-0.6020531
-4.895917	BOOTS	-0.6538892
-4.799007	BORDEAUX	-0.8811215
-4.895917	BORDER	-0.6989548
-4.497977	BORED	-1.173016
-5.196947	BORING	-0.4322395
-4.895917	BORIS	-0.6690643
-4.136249	BORN	-1.437479
-4.117765	BOSS	-1.541741
-4.895917	BOSTON	-0.6541005
-3.573698	BOTH	-2.058
-5.020855	BOTHER	-0.5957544
-4.799007	BOTHERED	-0.8824517
-5.497977	BOTS	-0.2890839
-4.117765	BOTTLE	-2.1625
-5.020855	BOTTOM	-0.6020434
-5.497977	BOTTOMLESS	-0.3010286
-3.634654	BOUGHT	-2.468616
-4.497977	BOUND	-1.040712
-5.497977	BOUNDARIES	-0.2933222
-4.895917	BOW	-0.6541005
-4.242704	BOX	-3.372052
-5.196947	BOXING	-0.4771171
-2.134741	BOY	-4.421878
-3.342641	BOY'S	-2.522191
-4.895917	BOYFRIEND	-0.6961836
-4.267528	BOYS	-1.199354
-5.497977	BOYS'LL	-0.2990108
-5.497977	BRA	-0.2561605
-4.719826	BRACED	-1.287606
-4.719826	BRACELET	-0.9047231
-5.020855	BRAD	-0.6020559
-3.966498	BRAIN	-1.490636
-4.100037	BRAINS	-1.409374
-4.652879	BRAKE	-0.9030444
-5.497977	BRANCHES	-0.2933222
-5.497977	BRAND	-0.3007843
-4.543734	BRANDISHED	-0.9700942
-5.196947	BRASS	-0.477113
-5.196947	BRAVERY	-0.4743529
-4.594887	BREAD	-1.342278
-4.293857	BREAK	-1.147354
-5.020855	BREAKDOWN	-0.5571905
-3.929775	BREAKFAST	-1.530474
-4.196947	BREASTPLATE	-1.314511
-3.979463	BREATH	-1.523771
-5.497977	BREATHES	-0.3008202
-4.895917	BREED	-0.6979395
-4.652879	BREEZE	-1.300421
-4.799007	BRENDA	-0.8831379
-5.196947	BRENT'S	-0.4770661
-5.497977	BREWED	-0.2959937
-5.497977	BREWERY	-0.3009182
-5.020855	BRIAN	-0.6020559
-5.020855	BRIBE	-0.6000367
-4.895917	BRIBING	-0.6969467
-5.020855	BRICKS	-0.6007029
-4.543734	BRIDE	-0.9914529
-3.790407	BRIDGE	-1.640761
-4.895917	BRIEFING	-0.6988803
-3.339614	BRIGHT	-2.594736
-4.652879	BRIGHTLY	-1.04798
-3.941674	BRIGHTNESS	-1.560494
-4.652879	BRILLIANCE	-1.08604
-4.652879	BRILLIANTLY	-1.04798
-4.594887	BRIM	-0.9456955
-3.671902	BRING	-1.789825
-4.895917	BRINGS	-0.6917521
-4.895917	BRITAIN	-0.6541005
-4.652879	BRITISH	-1.008074
-5.497977	BROAD	-0.3009044
-5.020855	BROADCAST	-0.6006822
-4.321886	BROKE	-1.260823
-4.384033	BROKEN	-1.101259
-5.196947	BROTH	-0.4746763
-4.351849	BROTHER	-1.130284
-4.594887	BROTHER'S	-0.953798
-3.511205	BROUGHT	-2.805748
-5.196947	BROWN	-0.4322518
-4.895917	BROWSED	-0.6690643
-4.543734	BROWSER	-1.083513
-5.020855	BROWSER'S	-0.6020559
-4.418796	BROWSING	-1.206275
-4.799007	BRUCE	-0.7781305
-5.196947	BRUSH	-0.4758666
-5.196947	BUBBLES	-0.4322518
-4.895917	BUCKET	-0.6541005
-4.351849	BUCKS	-1.173796
-5.497977	BUFFER	-0.3010286
-4.652879	BUG	-0.8980299
-4.895917	BUGLE	-0.690423
-5.497977	BUGS	-0.2959937
-3.854524	BUILD	-1.610005
-3.864508	BUILDING	-1.565479
-4.652879	BUILDINGS	-0.8579234
-3.734549	BUILT	-2.149101
-4.799007	BUILTIN	-0.778125
-3.705585	BULK	-1.754284
-5.497977	BULLDOGS	-0.2561605
-3.854524	BULLET	-1.750774
-4.719826	BULLETIN	-0.8431191
-3.906912	BULLETS	-1.599927
-5.020855	BUMP	-0.6012811
-4.543734	BUNCH	-0.9922922
-4.418796	BUNCHED	-1.113016
-4.594887	BUNDLE	-0.9465348
-5.497977	BUNNY	-0.3010093
-4.895917	BURIAL	-0.6989645
-3.835219	BURIED	-1.636775
-4.321886	BURNED	-1.61312
-3.966498	BURNING	-1.543855
-5.020855	BURNS	-0.5541197
-4.456584	BURSTING	-1.076736
-4.652879	BURY	-1.086944
-4.799007	BUS	-0.7330782
-4.050819	BUSEY'S	-1.462357
-5.196947	BUSH	-0.4771185
-4.895917	BUSHES	-0.6541005
-3.611486	BUSINESS	-2.078813
-5.196947	BUSONLY	-0.4771185
-4.321886	BUSY	-1.526758
-2.284725	BUT	-3.672132
-5.196947	BUTMAYBE	-0.4767679
-5.196947	BUTT	-0.4743529
-3.864508	BUTTER	-1.595871
-4.594887	BUTTERFLIES	-0.9523675
-4.497977	BUTTERFLY	-1.041177
-5.497977	BUTTON	-0.2561605
-4.594887	BUTTONS	-1.058261
-3.558458	BUY	-2.080284
-4.594887	BUYING	-1.388071
-5.020855	BUZZARD	-0.6020463
-5.196947	BUZZWORD	-0.4768715
-2.736049	BY	-2.658636
-4.895917	C'MON	-0.6983929
-4.594887	CAB	-1.338667
-5.196947	CABBAGE	-0.4322518
-5.497977	CABIN	-0.2982616
-5.020855	CABLES	-0.5957544
-5.020855	CACOPHONY	-0.6019703
-5.497977	CACTUS	-0.2959937
-3.895917	CADDIES	-1.610909
-5.196947	CAESAR	-0.4771158
-4.652879	CAFE	-1.345403
-5.497977	CAGE	-0.2561605
-4.719826	CAIRUM	-1.280848
-5.020855	CAKE	-0.5541197
-5.020855	CAKES	-0.5571905
-4.652879	CALCULATED	-1.08725
-3.885193	CALCULATOR	-1.623193
-4.799007	CALENDAR	-0.8770408
-5.020855	CALIBRATE	-0.5721543
-4.895917	CALIBRATING	-0.6541005
-5.020855	CALIBRATION	-0.5721439
-4.895917	CALIFORNIA	-0.6965251
-3.634654	CALL	-2.005477
-3.207942	CALLED	-2.257056
-4.100037	CALLING	-1.836117
-4.456584	CALLS	-1.265835
-5.497977	CALM	-0.2924829
-4.895917	CALMED	-0.6535355
-5.497977	CAMCORDER	-0.2890839
-2.8438	CAME	-4.680952
-3.394173	CAMEL	-2.098461
-4.594887	CAMEL'S	-0.9542205
-3.864508	CAMELS	-1.691608
-4.895917	CAMERA	-0.6870196
-3.749789	CAMP	-1.704089
-5.497977	CAMPFIRE	-0.2924829
-4.497977	CAMPFIRES	-1.039518
-5.020855	CAMPING	-0.6012618
-2.667388	CAN	-3.501478
-3.060226	CAN'T	-2.886357
-4.594887	CANADA	-0.9514742
-4.799007	CANADIAN	-0.8820535
-4.895917	CANAL	-0.6541005
-5.196947	CANARY	-0.4322518
-5.497977	CANCELLED	-0.2561605
-5.497977	CANCER	-0.2561605
-5.196947	CANDICE	-0.4764281
-5.020855	CANDIDATE	-0.5995693
-5.196947	CANDIDATES	-0.4322518
-5.497977	CANDIED	-0.3010272
-5.497977	CANDLELIGHT	-0.2890839
-4.719826	CANDY	-1.287646
-4.175757	CANNOT	-1.339795
-5.020855	CANT	-0.6015741
-4.543734	CAPABLE	-0.9984311
-3.807781	CAPE	-1.678236
-5.196947	CAPITALISM	-0.4322518
-4.799007	CAPPUCCINO	-0.8382753
-5.020855	CAPRICORN	-0.5992917
-4.497977	CAPSULES	-1.438443
-5.497977	CAPTAIN	-0.2561605
-5.020855	CAPTIVATING	-0.5571905
-4.895917	CAPTURE	-0.6208119
-5.020855	CAPTURING	-0.6020283
-4.066613	CAR	-1.388335
-5.497977	CARAMELS	-0.2996522
-3.705585	CARAVAN	-1.926494
-4.719826	CARAVANS	-1.284328
-4.652879	CARBON	-0.9030803
-4.100037	CARD	-1.346912
-4.799007	CARDIGAN	-0.8811839
-4.497977	CARDS	-1.01078
-3.698636	CARE	-1.982653
-4.267528	CAREER	-1.210403
-4.196947	CAREFUL	-1.379627
-4.050819	CAREFULLY	-1.415334
-5.497977	CARGO	-0.2561605
-5.196947	CARL	-0.4771116
-4.895917	CARLOS	-0.6984606
-4.719826	CAROL	-0.8450567
-4.652879	CARPET	-0.9904457
-3.953909	CARRIAGE	-1.555642
-3.941674	CARRIED	-1.537534
-4.719826	CARRIES	-1.28765
-5.196947	CARROTS	-0.4685742
-4.175757	CARRY	-1.409121
-3.825879	CARRYING	-1.777227
-5.497977	CARS	-0.2990067
-4.895917	CARSON	-0.6989645
-4.895917	CARTER	-0.6541005
-3.734549	CASE	-2.02389
-5.020855	CASES	-0.5556624
-4.497977	CASH	-1.24016
-5.497977	CASHIER'S	-0.3002649
-5.497977	CASINO	-0.2561605
-5.020855	CASPER	-0.6020545
-4.799007	CASSIE	-0.7332725
-4.384033	CAST	-1.091167
-4.543734	CASTLE	-0.9999103
-4.594887	CASTLES	-0.9492062
-5.196947	CASUALTIES	-0.4771185
-4.497977	CAT	-1.10137
-5.196947	CATALYSTS	-0.4767803
-5.497977	CATASTROPHE	-0.2987696
-5.497977	CATASTROPHIC	-0.2561605
-4.351849	CATCH	-1.601577
-5.497977	CATEGORY	-0.2561605
-4.799007	CATERPILLAR	-0.8831214
-4.456584	CATHERINE	-1.268778
-5.497977	CATHOLIC	-0.3005799
-4.719826	CATTLE	-0.8450732
-4.384033	CAUGHT	-1.210374
-4.351849	CAUSE	-1.161954
-3.678433	CAUSED	-1.784462
-4.384033	CAUSING	-1.140516
-5.497977	CAUSTIC	-0.3010286
-5.196947	CAVE	-0.4743529
-3.816736	CEASED	-1.67825
-5.020855	CEILING	-0.602049
-4.497977	CELEBRATE	-1.239708
-5.497977	CELEBRATIONS	-0.3010286
-5.196947	CELSIUS	-0.4322518
-5.020855	CEMETERY	-0.5571905
-4.652879	CENT	-1.087813
-4.267528	CENTER	-3.392646
-4.321886	CENTS	-1.26195
-4.719826	CENTURIES	-1.27995
-4.267528	CENTURION	-1.392605
-5.020855	CEO	-0.5571905
-5.497977	CEREALS	-0.2561605
-4.895917	CEREMONY	-0.6541005
-4.006615	CERTAIN	-1.933074
-3.617163	CERTAINLY	-2.325571
-4.895917	CERTIFICATE	-0.6989576
-5.497977	CERTIFIED	-0.2561605
-5.196947	CESAR	-0.4771158
-4.456584	CEUTA	-1.075851
-5.196947	CHAD	-0.477113
-5.196947	CHAINSAW	-0.4703114
-5.020855	CHAIR	-0.5534968
-5.020855	CHAIRS	-0.5571905
-5.196947	CHALLENGE	-0.4694135
-4.652879	CHALLENGES	-1.291293
-5.497977	CHAMBER	-0.2561605
-5.020855	CHAMPION	-0.5571905
-4.020855	CHANCE	-1.579721
-4.293857	CHANCES	-1.185579
-3.506751	CHANGE	-1.906318
-3.835219	CHANGED	-2.448203
-4.242704	CHANGES	-3.384888
-4.267528	CHANGING	-1.176683
-5.020855	CHANNEL	-0.5571905
-4.594887	CHANTING	-0.9534844
-4.895917	CHAP	-0.6541005
-3.979463	CHARACTER	-1.475595
-5.497977	CHARCOAL	-0.3010093
-4.050819	CHARGE	-1.505644
-4.652879	CHARGED	-1.091235
-5.020855	CHARGER	-0.5571905
-5.196947	CHARGES	-0.4322518
-4.895917	CHARITY	-0.6989576
-4.594887	CHARLES	-0.9040391
-5.497977	CHARLESTON	-0.3010286
-5.196947	CHARM	-0.4322518
-3.966498	CHARRED	-1.542513
-5.196947	CHASE	-0.4472155
-5.497977	CHASED	-0.2999994
-5.196947	CHASING	-0.475098
-5.020855	CHATTERED	-0.6019883
-4.543734	CHEAP	-0.9971412
-5.196947	CHEAPEST	-0.4754762
-5.497977	CHEATING	-0.299069
-4.196947	CHECK	-2.07403
-4.799007	CHECKED	-0.8382753
-4.719826	CHECKING	-1.286301
-5.196947	CHECKPOINTS	-0.4322518
-5.497977	CHEERED	-0.2561605
-5.196947	CHEERS	-0.4746305
-4.594887	CHEESE	-1.044403
-5.196947	CHEKHOV	-0.4685742
-4.799007	CHEMICAL	-0.7781443
-5.196947	CHEMIST	-0.4765649
-5.196947	CHEMISTRY	-0.4322518
-5.020855	CHERRIES	-0.5571905
-5.497977	CHESS	-0.2982616
-4.117765	CHEST	-1.449139
-5.196947	CHEWING	-0.4771185
-4.799007	CHEWY	-0.8830565
-4.594887	CHICKEN	-0.9537083
-4.799007	CHICKENEGGPROBLEM	-0.8382753
-4.799007	CHICKENS	-0.7767139
-3.790407	CHIEF	-2.109785
-4.543734	CHIEFS	-0.9922922
-4.719826	CHIEFTAIN	-1.287389
-3.929775	CHIEFTAINS	-1.71964
-4.196947	CHILD	-1.264257
-5.196947	CHILDHOOD	-0.4322518
-3.799007	CHILDREN	-2.493987
-4.895917	CHILL	-0.6984606
-5.196947	CHILLI	-0.4771185
-4.799007	CHILLING	-0.8711988
-5.196947	CHIMNEY	-0.4322518
-5.497977	CHIN	-0.2561605
-4.719826	CHINCHILLA	-1.287647
-5.196947	CHINESE	-0.4770412
-5.196947	CHIPPED	-0.4684236
-5.497977	CHLORIDE	-0.2982616
-5.497977	CHLORINE	-0.2561605
-4.719826	CHOCOLATE	-0.9499854
-4.497977	CHOICE	-0.99639
-5.196947	CHOOSE	-0.4454529
-4.594887	CHORES	-1.085866
-5.196947	CHOSE	-0.476218
-4.594887	CHOSEN	-0.9519821
-5.497977	CHRIS	-0.3008865
-4.594887	CHRISTIAN	-1.143991
-5.020855	CHRISTIANITY	-0.5571905
-4.799007	CHRISTINA	-0.8830814
-5.020855	CHRISTINE	-0.6020559
-3.992827	CHRISTMAS	-1.770119
-4.719826	CHRISTOPHER	-0.7934456
-5.196947	CHROMATIC	-0.4771185
-4.719826	CHROME	-0.7932296
-5.020855	CHROMIUM	-0.6020559
-4.652879	CHRONICLE	-0.8540806
-4.895917	CHUMPS	-0.6541005
-4.321886	CHURCH	-1.588585
-4.719826	CIA	-1.28764
-5.020855	CIGAR	-0.6013668
-5.196947	CIGARETTE	-0.4685742
-5.497977	CIGARETTES	-0.3009803
-5.020855	CIGARS	-0.5721543
-4.799007	CINEMA	-0.7265081
-5.497977	CINEMATIC	-0.3010286
-3.563478	CIRCLE	-2.701753
-4.799007	CIRCLES	-0.8382753
-5.020855	CIRCUIT	-0.6020559
-3.864508	CIRCULAR	-1.643377
-4.799007	CIRCULATION	-0.8382753
-5.196947	CIRCUS	-0.4771185
-5.497977	CITADEL	-0.2561605
-4.799007	CITATION	-0.8829171
-4.456584	CITIES	-1.034312
-3.538935	CITY	-1.99623
-5.196947	CITY'S	-0.4769915
-5.196947	CITYWALL	-0.4322518
-5.196947	CIVILIZATION	-0.4322518
-5.196947	CLAIM	-0.4576518
-5.196947	CLAIMED	-0.4762221
-4.799007	CLAIMS	-0.876335
-4.895917	CLAIRE	-0.6541005
-5.196947	CLAIRE'S	-0.4771185
-4.456584	CLAMORED	-1.067235
-5.196947	CLARIFICATION	-0.4322518
-5.497977	CLARINET	-0.2561605
-5.020855	CLARK	-0.6015188
-4.242704	CLASS	-1.325793
-5.497977	CLASSES	-0.2561605
-4.719826	CLASSIC	-0.8002163
-5.196947	CLASSICAL	-0.4771075
-4.652879	CLASSIFICATION	-0.8437472
-5.497977	CLAUS	-0.2959937
-5.497977	CLAY	-0.2561605
-4.196947	CLEAN	-1.646075
-4.719826	CLEANED	-1.285407
-4.351849	CLEANING	-1.123664
-3.671902	CLEAR	-1.749125
-5.497977	CLEARED	-0.2982727
-5.196947	CLEARING	-0.4761944
-4.652879	CLEARLY	-0.8515602
-5.497977	CLENCHED	-0.3010286
-4.895917	CLEVER	-0.6985034
-4.652879	CLICK	-0.8426734
-5.020855	CLICKABLE	-0.6020463
-4.652879	CLICKING	-1.00215
-4.719826	CLIENTS	-0.9464462
-5.020855	CLIENTSERVER	-0.6020559
-4.242704	CLIFF	-1.278211
-4.799007	CLIMB	-0.7775699
-3.979463	CLIMBED	-1.583096
-5.497977	CLINIC	-0.2561605
-5.497977	CLINICAL	-0.3010148
-4.719826	CLOCK	-0.9361697
-3.790407	CLOSE	-1.804473
-4.196947	CLOSED	-1.463491
-5.497977	CLOSEDSOURCE	-0.3009872
-4.136249	CLOSER	-1.419275
-4.799007	CLOSEST	-0.7645056
-4.456584	CLOSING	-1.878956
-4.895917	CLOTH	-0.690423
-4.594887	CLOTHES	-1.010744
-4.100037	CLOTHING	-1.834783
-4.594887	CLOTHS	-0.9456955
-3.790407	CLOUD	-1.656872
-3.979463	CLOUDS	-1.478054
-4.719826	CLOVERS	-1.242788
-4.895917	CLOWNS	-0.6520209
-3.835219	CLUB	-1.621375
-4.418796	CLUBS	-1.066311
-4.418796	CLUE	-1.069074
-4.117765	CLUMSILY	-1.389393
-5.020855	CLUMSY	-0.6016929
-5.020855	COACH	-0.6014926
-4.799007	COAL	-0.8830469
-4.242704	COAT	-1.405854
-4.799007	COATED	-0.8817698
-5.497977	COBAIN	-0.3010065
-5.497977	COBALT	-0.300932
-5.196947	COBBLESTONE	-0.4322518
-4.652879	COBRA	-1.092819
-4.799007	COCKROACHES	-0.8382753
-4.895917	COCONUTS	-0.6541005
-4.050819	CODE	-1.396875
-5.497977	CODEC	-0.2561605
-4.719826	CODED	-1.287646
-4.799007	CODING	-0.7251603
-4.035579	COFFEE	-1.425275
-5.196947	COFFIN	-0.4710172
-5.020855	COIL	-0.6014926
-5.020855	COIN	-0.6005092
-4.719826	COINCIDENCE	-1.242788
-3.698636	COINS	-1.738258
-5.497977	COKE	-0.3000949
-3.895917	COLD	-1.554897
-4.895917	COLIC	-0.6541005
-5.020855	COLIN	-0.6012521
-4.652879	COLLABORATE	-1.090404
-5.497977	COLLAPSE	-0.2998141
-4.594887	COLLAPSED	-0.9093592
-4.895917	COLLATERAL	-0.6912622
-5.196947	COLLEAGUE	-0.4694135
-5.497977	COLLECTED	-0.2561605
-4.719826	COLLECTION	-0.9395658
-5.196947	COLLECTOR	-0.4322518
-4.719826	COLLEGE	-0.7986621
-5.497977	COLLIE	-0.3010286
-4.351849	COLONEL	-1.131219
-4.719826	COLONY	-0.7916735
-4.155554	COLOR	-1.353782
-4.895917	COLORADO	-0.6541005
-4.543734	COLORED	-0.9999876
-4.719826	COLORS	-0.7997295
-5.497977	COLORWAY	-0.2561605
-4.020855	COLOSSAL	-1.491276
-4.652879	COLOUR	-0.9003091
-4.799007	COLUMN	-0.7326877
-4.719826	COMB	-1.286403
-4.594887	COMBAT	-1.34987
-5.497977	COMBINATION	-0.2561605
-5.196947	COMBINED	-0.4771185
-3.013677	COME	-2.455295
-5.497977	COMEDY	-0.2561605
-3.895917	COMES	-2.703706
-5.196947	COMET	-0.4764985
-4.594887	COMFORTABLE	-1.34538
-5.020855	COMFY	-0.602049
-3.354962	COMING	-2.472521
-4.719826	COMINGS	-1.279111
-4.594887	COMMAND	-0.8823749
-4.196947	COMMANDER	-1.489667
-5.020855	COMMANDING	-0.601523
-4.543734	COMMANDS	-0.9281113
-4.799007	COMMENCED	-0.8711988
-5.497977	COMMENTS	-0.3000783
-4.895917	COMMERCIALS	-0.6541005
-5.497977	COMMITS	-0.300834
-5.020855	COMMITTED	-0.6012189
-3.941674	COMMON	-1.525208
-5.196947	COMMOTION	-0.472085
-5.497977	COMMUNICATION	-0.2982616
-5.196947	COMMUNISM	-0.4743529
-4.895917	COMMUNITY	-0.6989438
-4.456584	COMMUTING	-1.034312
-5.020855	COMPANIES	-0.5571905
-4.083004	COMPANION	-1.490382
-4.418796	COMPANY	-1.060935
-5.020855	COMPANY'S	-0.6017522
-5.020855	COMPARABLE	-0.5901139
-5.497977	COMPARE	-0.301019
-5.497977	COMPARED	-0.2890839
-4.351849	COMPARISON	-1.164145
-4.799007	COMPARTMENT	-0.8811839
-5.196947	COMPETITION	-0.4322518
-5.020855	COMPILING	-0.5721543
-4.594887	COMPLAIN	-1.058862
-5.497977	COMPLAINED	-0.2561605
-4.652879	COMPLAINING	-1.343615
-4.652879	COMPLETE	-0.9299254
-4.652879	COMPLETED	-1.062944
-3.929775	COMPLETELY	-1.899328
-4.799007	COMPLETING	-0.8532391
-4.895917	COMPLEX	-0.6540944
-4.083004	COMPLICATED	-1.373289
-5.196947	COMPLIMENT	-0.4769791
-5.497977	COMPONENT	-0.2933222
-5.020855	COMPOSED	-0.6011567
-5.020855	COMPRESSED	-0.5961546
-5.497977	COMPRESSION	-0.3010203
-5.497977	COMPUTATIONAL	-0.3010134
-5.196947	COMPUTATIONALLY	-0.4766118
-4.799007	COMPUTE	-0.8532391
-4.351849	COMPUTED	-1.123887
-3.807781	COMPUTER	-1.643873
-5.020855	COMPUTERS	-0.6012521
-4.006615	CONCENTRATE	-1.647436
-5.020855	CONCENTRIC	-0.6020531
-4.895917	CONCEPT	-0.6989645
-4.050819	CONCERNED	-1.381311
-5.196947	CONCERT	-0.472085
-5.020855	CONCESSIONS	-0.6000367
-4.652879	CONCISE	-0.8920888
-4.652879	CONCLUSION	-1.04798
-5.020855	CONCLUSIONS	-0.6006822
-5.020855	CONCLUSIVE	-0.6020476
-4.456584	CONDEMNED	-1.049275
-4.719826	CONDITION	-0.8000419
-4.895917	CONDITIONED	-0.6970091
-5.196947	CONDITIONER	-0.4764281
-4.895917	CONDITIONING	-0.6966152
-5.497977	CONDOMS	-0.3009927
-5.196947	CONFERENCE	-0.4770316
-4.652879	CONFESSED	-1.08725
-5.497977	CONFESSION	-0.2890839
-5.497977	CONFIDENCE	-0.3005799
-4.384033	CONFIDENT	-1.139701
-5.497977	CONFIGURE	-0.3010162
-4.652879	CONFISCATED	-1.092091
-5.497977	CONFISCATING	-0.3006297
-4.006615	CONFOUNDED	-1.504783
-4.652879	CONFUSED	-0.8555086
-5.497977	CONFUSING	-0.2561605
-4.497977	CONGESTION	-1.276229
-4.652879	CONGRESSIONAL	-1.092837
-4.895917	CONGRESSMAN	-0.6989645
-5.196947	CONJURING	-0.4771047
-5.497977	CONNECT	-0.2890839
-3.906912	CONNECTED	-1.572151
-5.497977	CONNECTING	-0.2711242
-4.456584	CONNECTION	-1.266365
-4.050819	CONNECTIONS	-1.456799
-4.384033	CONQUER	-1.116222
-5.497977	CONQUERED	-0.3009417
-5.196947	CONQUERING	-0.4472155
-4.594887	CONSENTS	-0.909373
-5.196947	CONSEQUENCE	-0.4694135
-4.384033	CONSIDER	-1.14598
-4.418796	CONSIDERED	-1.084038
-5.020855	CONSIDERS	-0.5721543
-5.497977	CONSISTED	-0.3008092
-5.497977	CONSISTS	-0.2933222
-3.953909	CONSOLATION	-1.547755
-4.050819	CONSONANT	-1.450452
-5.020855	CONSPIRACY	-0.6020531
-5.497977	CONSTANT	-0.3001128
-5.196947	CONSTITUTION	-0.4694135
-5.196947	CONSTRAINTS	-0.4694135
-5.497977	CONSTRICTED	-0.3001308
-5.020855	CONSTRUCTED	-0.5996151
-4.895917	CONSTRUCTION'	-0.6962017
-5.196947	CONSTRUCTIVE	-0.4761696
-4.543734	CONSULTED	-0.9975551
-5.196947	CONSUME	-0.4752559
-5.497977	CONSUMER	-0.3010217
-5.020855	CONSUMING	-0.5571905
-5.020855	CONSUMPTION	-0.5571905
-4.799007	CONTACT	-0.7781305
-4.543734	CONTAIN	-0.9972414
-3.941674	CONTAINED	-1.51307
-4.351849	CONTAINER	-1.121734
-4.497977	CONTAINS	-1.041267
-4.799007	CONTEMPLATING	-0.7452911
-3.874727	CONTENT	-1.585528
-5.020855	CONTENTS	-0.5571905
-5.497977	CONTEST	-0.2561605
-5.497977	CONTEXT	-0.2561605
-4.799007	CONTINUANCE	-0.8806542
-3.685063	CONTINUE	-2.194504
-3.437279	CONTINUED	-2.147432
-5.020855	CONTINUES	-0.5880982
-5.196947	CONTINUOUS	-0.4771088
-4.652879	CONTINUOUSLY	-1.092823
-4.543734	CONTRACT	-1.397637
-5.497977	CONTRAPTIONS	-0.3010079
-4.652879	CONTRAST	-0.894533
-5.497977	CONTRIBUTED	-0.3003229
-5.196947	CONTRIBUTING	-0.4651752
-4.497977	CONTROL	-0.9934971
-5.497977	CONTROLLER	-0.301019
-5.196947	CONTROVERSIALLY	-0.4322518
-5.497977	CONUNDRUM	-0.2954308
-5.497977	CONVECTION	-0.2959937
-4.799007	CONVENIENCE	-0.8382753
-4.652879	CONVENIENT	-0.9607068
-4.418796	CONVENTION	-1.066003
-4.895917	CONVENTION'S	-0.6988859
-3.799007	CONVERSATION	-1.653524
-4.799007	CONVERSATIONS	-0.8532391
-5.196947	CONVERT	-0.4322518
-4.497977	CONVERTED	-1.029447
-4.594887	CONVEYED	-0.9243368
-4.543734	CONVINCE	-0.9622141
-5.196947	CONVULSIONS	-0.4322518
-4.594887	CONVULSIVELY	-0.909373
-4.895917	CONWAY	-0.6473268
-5.497977	COOKIES	-0.2996522
-4.384033	COOKING	-1.196716
-4.497977	COOL	-0.9965231
-4.652879	COOLED	-1.062944
-3.929775	COOLING	-1.541615
-4.652879	COORDINATE	-1.09284
-5.497977	COORDINATES	-0.2982616
-4.594887	COP	-1.137897
-5.497977	COPIED	-0.3010052
-4.799007	COPPER	-0.8745978
-5.196947	COPS	-0.4770578
-4.456584	COPTIC	-1.079144
-4.351849	COPY	-1.353388
-4.799007	CORDLESS	-0.8831379
-5.497977	CORE	-0.2994791
-4.799007	CORN	-0.8831255
-5.196947	CORNED	-0.4771144
-4.175757	CORNER	-1.334715
-5.497977	CORP	-0.2933222
-4.652879	CORRAL	-1.04798
-5.497977	CORRECT	-0.3010272
-5.497977	CORRECTED	-0.2959937
-4.594887	CORRECTLY	-0.909373
-5.497977	CORRUPTED	-0.2561605
-4.895917	CORRUPTION	-0.6988886
-5.497977	CORSET	-0.3010286
-4.050819	COSMIC	-1.462359
-4.418796	COST	-1.258175
-4.652879	COSTS	-0.9948676
-4.799007	COSY	-0.8382753
-4.719826	COTTAGE	-1.287637
-4.594887	COUCH	-1.0454
-2.78617	COULD	-3.569978
-3.480943	COULDN'T	-2.077297
-4.384033	COULDNT	-1.980727
-4.351849	COUNSELOR	-1.122667
-4.267528	COUNT	-1.206189
-4.594887	COUNTED	-0.9483371
-4.895917	COUNTER	-0.6519256
-4.594887	COUNTERFEIT	-0.9538009
-4.543734	COUNTING	-1.103026
-5.497977	COUNTRIES	-0.2959937
-3.992827	COUNTRY	-1.430645
-4.652879	COUNTY	-0.963191
-3.799007	COUPLE	-1.699317
-4.652879	COURAGE	-1.062944
-3.594887	COURSE	-1.896906
-5.497977	COURTS	-0.3009706
-4.351849	COVER	-1.277315
-3.617163	COVERED	-2.275323
-5.497977	COVERS	-0.2711242
-4.799007	COWBOY	-0.8382753
-4.543734	COWORKERS	-0.9551305
-5.196947	CRACKED	-0.4770274
-5.497977	CRACKING	-0.3010286
-5.196947	CRAFTED	-0.4684236
-4.652879	CRAIG	-1.090081
-5.020855	CRANE	-0.6018516
-5.497977	CRASH	-0.2933222
-4.799007	CRASHED	-0.8382753
-5.196947	CRASHING	-0.4763424
-5.196947	CRAWLING	-0.4746763
-4.035579	CRAZY	-1.416317
-4.594887	CREAM	-0.9047524
-5.497977	CREAMY	-0.301019
-4.267528	CREATE	-1.56587
-4.267528	CREATED	-1.213364
-4.652879	CREATES	-1.084152
-4.895917	CREATING	-0.6902723
-4.351849	CREATION	-1.19961
-4.652879	CREATIVE	-0.9627149
-4.719826	CREATIVITY	-0.9471567
-3.895917	CREATURE	-1.567902
-5.020855	CREATURES	-0.5571905
-5.196947	CREDIT	-0.4770868
-5.020855	CREEPING	-0.6011332
-5.497977	CREEPY	-0.2561605
-5.497977	CREPES	-0.2985851
-5.020855	CRESCENDO	-0.5964608
-5.020855	CREW	-0.6012521
-4.719826	CRICKETS	-1.279111
-4.242704	CRIED	-1.716569
-5.020855	CRIME	-0.5571905
-5.196947	CRIMES	-0.4322518
-5.196947	CRIMINAL	-0.4322502
-4.497977	CRIMINALS	-0.9964756
-4.083004	CRIMSON	-1.431302
-5.196947	CRINGE	-0.4771185
-5.020855	CRISIS	-0.5571905
-5.497977	CRITICAL	-0.2890839
-5.196947	CRITICIZE	-0.4769943
-5.497977	CRITICIZED	-0.2985393
-5.497977	CROISSANTS	-0.2561605
-4.321886	CROOK	-3.316456
-4.652879	CROOKS	-0.8966513
-5.497977	CROP	-0.2985851
-5.196947	CROPS	-0.4322518
-4.196947	CROSS	-1.279792
-3.885193	CROSSED	-1.592924
-3.864508	CROSSING	-1.668786
-4.652879	CROSSTEAM	-1.092831
-4.799007	CROW	-0.8831379
-3.387387	CROWD	-2.87866
-4.652879	CROWDED	-1.300779
-4.456584	CROWN	-1.079166
-4.652879	CRUCIAL	-1.092662
-5.020855	CRUEL	-0.593513
-5.497977	CRUISE	-0.3010286
-5.497977	CRUISED	-0.3010286
-5.196947	CRUSH	-0.4300768
-4.050819	CRY	-1.412037
-4.719826	CRYING	-0.8412425
-4.652879	CRYPTOGRAPHY	-0.8721749
-3.219223	CRYSTAL	-3.185217
-4.418796	CRYSTALS	-1.108907
-5.196947	CUB	-0.4322518
-4.083004	CUBES	-1.386494
-5.196947	CUCUMBERS	-0.4749884
-4.895917	CUDDLED	-0.6980709
-5.497977	CUDDLING	-0.2985851
-4.895917	CULTURE	-0.6510298
-5.196947	CUNNING	-0.4694135
-3.941674	CUP	-1.511584
-5.196947	CUPBOARD	-0.4710172
-4.719826	CUPS	-0.7987005
-5.497977	CURE	-0.2982727
-4.497977	CURED	-1.041343
-4.456584	CURES	-1.079131
-4.456584	CURIOSITY	-1.217297
-4.719826	CURIOUS	-1.275712
-5.497977	CURRENCY	-0.3010038
-4.219223	CURRENT	-1.739305
-4.799007	CURRENTLY	-0.8781086
-4.020855	CURSE	-1.413203
-5.497977	CURSOR	-0.3010286
-4.895917	CURTAIN	-0.6962017
-5.497977	CURTAINS	-0.301012
-4.497977	CURVED	-1.041271
-5.020855	CUSHION	-0.595956
-5.020855	CUSTARD	-0.5571905
-5.497977	CUSTOM	-0.3010038
-4.175757	CUSTOMER	-1.338308
-4.652879	CUSTOMERS	-1.344213
-5.497977	CUSTOMIZABLE	-0.2561605
-4.497977	CUSTOMS	-1.033685
-4.384033	CUT	-1.086221
-4.719826	CUTE	-1.28765
-5.497977	CUTLET	-0.2982616
-3.918193	CYCLISTS	-1.582367
-3.175757	CYLINDER	-2.447821
-4.719826	CYNDI	-1.287647
-4.719826	D	-1.287207
-5.196947	DABBLED	-0.472085
-5.497977	DAD	-0.2949259
-4.543734	DADDY	-1.054536
-5.196947	DADS	-0.4703114
-5.497977	DAFFODILS	-0.2996522
-5.020855	DAISIES	-0.5571905
-5.497977	DAMAGE	-0.2994791
-5.196947	DAMAGED	-0.4322518
-4.895917	DAMN	-0.6989589
-4.456584	DAMNED	-1.078176
-5.020855	DAN	-0.5571905
-5.020855	DANCE	-0.5571629
-4.895917	DANCED	-0.6987436
-5.196947	DANDELION	-0.4322518
-3.874727	DANGER	-1.744691
-4.219223	DANGEROUS	-1.693017
-5.196947	DANIELS	-0.4769101
-4.719826	DARE	-0.8378745
-4.799007	DARED	-0.8711988
-3.953909	DARK	-1.501809
-4.594887	DARKEST	-0.9541391
-4.895917	DARKEYED	-0.6989645
-3.906912	DARKNESS	-1.554842
-5.196947	DARLING	-0.4698038
-5.196947	DARREN	-0.4762954
-5.196947	DARWIN	-0.477033
-5.497977	DATA	-0.2890839
-4.895917	DATABASE	-0.6541005
-4.895917	DATABASES	-0.6962017
-4.267528	DATASET	-1.165634
-4.799007	DATASETS	-0.8382753
-4.006615	DATE	-1.899741
-3.835219	DAUGHTER	-1.603966
-4.652879	DAUNTING	-1.090589
-5.020855	DAVE'S	-0.6020476
-4.895917	DAVID'S	-0.6987451
-4.799007	DAVIS	-0.8382753
-3.617163	DAWN	-1.832133
-4.543734	DAWNING	-0.9914529
-2.918193	DAY	-2.609875
-5.497977	DAYDREAMING	-0.2991827
-3.201312	DAYS	-2.215816
-4.652879	DAZZLED	-1.04798
-3.941674	DEAD	-3.679676
-4.895917	DEADLINE	-0.6962017
-5.196947	DEAFENING	-0.4770192
-3.734549	DEAL	-1.818414
-5.497977	DEALING	-0.2985851
-4.543734	DEAR	-1.104811
-4.895917	DEARS	-0.6541005
-3.790407	DEATH	-3.822507
-5.196947	DEBATED	-0.4771185
-5.497977	DEBIAN	-0.2982616
-4.895917	DEBORAH	-0.6541005
-4.799007	DEBRA	-0.8830966
-5.497977	DEBUGGER	-0.2942201
-5.497977	DECADE	-0.2959937
-4.719826	DECADES	-0.7915034
-4.895917	DECANTED	-0.6690643
-5.497977	DECAY	-0.2937125
-5.196947	DECEMBER	-0.4322518
-5.196947	DECENT	-0.4770882
-4.497977	DECIDE	-0.9962033
-3.330659	DECIDED	-2.578657
-5.196947	DECIDING	-0.4767348
-4.418796	DECISION	-1.100932
-3.918193	DECISIONS	-1.538638
-4.321886	DECLARED	-1.34875
-4.652879	DECORATE	-0.8707726
-4.799007	DECORATED	-0.8815303
-4.895917	DECORATIONS	-0.6541005
-4.719826	DECRYPTION	-1.242788
-5.196947	DEDICATING	-0.4684236
-5.020855	DEE'S	-0.6018351
-3.966498	DEEP	-1.499061
-5.196947	DEEPER	-0.4322518
-5.497977	DEEPLEARNINGBASED	-0.3009872
-5.196947	DEEPSPEECH	-0.4743515
-4.719826	DEER	-0.9500585
-4.895917	DEFEAT	-0.6690643
-5.196947	DEFENDANT	-0.4770247
-5.196947	DEFENSE	-0.4694135
-5.196947	DEFIBRILLATOR	-0.4651752
-4.155554	DEFINITELY	-1.517661
-4.895917	DEFINITION	-0.6912622
-5.497977	DEFINITIVELY	-0.3010231
-5.497977	DEFORMED	-0.3009817
-4.594887	DEGREE	-1.006689
-5.196947	DEGREES	-0.4771185
-4.719826	DELAYED	-1.242788
-4.895917	DELETE	-0.6599014
-4.384033	DELETED	-1.206148
-4.083004	DELICIOUS	-3.543877
-4.543734	DELIGHT	-0.9914529
-5.020855	DELIGHTED	-0.600685
-4.652879	DELIRIUM	-1.04798
-4.293857	DELIVER	-1.227346
-4.719826	DELIVERED	-1.257752
-5.196947	DEMAND	-0.4322518
-4.418796	DEMANDED	-1.069068
-4.719826	DEMANDING	-1.286403
-4.895917	DEMOCRACY	-0.6541005
-4.351849	DEMONSTRATE	-1.173334
-4.351849	DEMONSTRATING	-1.145166
-5.497977	DENIAL	-0.2933222
-5.020855	DENISE	-0.6020559
-4.799007	DENNIS	-0.7719017
-4.006615	DENSE	-1.505103
-4.799007	DENTIST	-0.7693297
-4.594887	DENY	-1.053543
-4.652879	DEPARTMENT	-1.087813
-4.456584	DEPARTURE	-1.911148
-4.594887	DEPEND	-0.9522816
-5.196947	DEPLETED	-0.4760589
-4.895917	DEPOSITED	-0.6988803
-4.497977	DEPRESSED	-0.9965231
-5.020855	DEPRESSING	-0.6002127
-4.895917	DEPRESSINGLY	-0.6989617
-5.196947	DEPRIVED	-0.4694135
-4.895917	DEPUTIES	-0.6541005
-5.020855	DERANGED	-0.6020545
-4.652879	DEREK	-1.092833
-3.835219	DESCENDED	-1.59394
-5.020855	DESCENT	-0.595956
-4.594887	DESCRIBE	-0.9169923
-3.953909	DESCRIBED	-1.514041
-5.497977	DESCRIPTION	-0.2937125
-5.497977	DESCRIPTORS	-0.2561605
-2.81493	DESERT	-2.784814
-4.351849	DESERT'S	-1.175989
-5.497977	DESERTED	-0.2998141
-4.351849	DESERVE	-1.121128
-5.020855	DESIGN	-0.5721543
-5.497977	DESIGNATED	-0.2985393
-4.719826	DESIRE	-1.282059
-5.196947	DESIRED	-0.4322518
-4.456584	DESIRES	-1.078505
-3.864508	DESK	-1.951424
-5.497977	DESKTOP	-0.3010065
-5.020855	DESPAIR	-0.5992917
-4.543734	DESPERATE	-1.095988
-4.543734	DESPERATELY	-1.436956
-3.895917	DESPICABLE	-1.607185
-4.418796	DESPITE	-1.084018
-4.719826	DESSERT	-1.28765
-4.050819	DESTINIES	-1.768369
-3.257427	DESTINY	-4.281988
-4.719826	DESTROYED	-0.7974659
-4.895917	DESTRUCTION	-0.6916525
-4.594887	DETAIL	-1.366431
-4.719826	DETAILS	-1.282059
-5.497977	DETECTED	-0.2711242
-5.497977	DETERMINANT	-0.2982616
-5.497977	DETERMINE	-0.3003202
-4.895917	DETERMINED	-0.6985089
-4.895917	DETRITUS	-0.6974192
-5.196947	DEVASTATED	-0.4322518
-5.020855	DEVELOPED	-0.5932961
-4.895917	DEVELOPER	-0.698963
-4.543734	DEVELOPERS	-1.135402
-5.497977	DEVELOPMENT	-0.2937125
-4.895917	DEVELOPMENTS	-0.6520377
-5.196947	DEVIATION	-0.4322518
-4.652879	DEVICE	-0.9023539
-5.020855	DEVICES	-0.5571905
-4.543734	DEVIL	-1.396081
-4.895917	DEVIL'S	-0.6986595
-5.497977	DIABETES	-0.2561605
-5.196947	DIABETICS	-0.4766878
-5.020855	DIALOG	-0.6020559
-3.864508	DIAMETER	-1.635745
-5.497977	DIAMOND	-0.3010217
-4.719826	DIAMONDS	-0.7987005
-5.497977	DIANN	-0.2561605
-4.895917	DIAPERS	-0.6541005
-4.719826	DIARY	-0.8002255
-5.497977	DICK	-0.2982616
-5.196947	DICTATE	-0.4770716
-5.497977	DICTATED	-0.2890839
-5.196947	DICTATION	-0.4322471
-5.020855	DICTATOR	-0.595956
-5.196947	DICTATOR'S	-0.4770647
-2.899186	DID	-3.100272
-2.850594	DIDN'T	-2.599966
-3.953909	DIDNT	-1.553598
-3.622916	DIE	-1.793228
-4.117765	DIED	-1.832309
-5.196947	DIEOFF	-0.4694135
-5.497977	DIES	-0.2937125
-4.543734	DIESEL	-1.141819
-3.895917	DIET	-1.605076
-4.267528	DIFFERENCE	-1.694095
-3.979463	DIFFERENT	-1.576913
-5.196947	DIFFERENTIAL	-0.4771171
-3.553494	DIFFICULT	-2.070056
-3.918193	DIFFICULTIES	-1.586024
-5.497977	DIFFUSE	-0.3006338
-4.050819	DIG	-1.561232
-4.321886	DIGGING	-1.599303
-4.895917	DIGITAL	-0.6989644
-4.594887	DIGNITY	-0.909373
-5.196947	DILATED	-0.4685742
-5.196947	DILUTED	-0.4472155
-4.895917	DIME	-0.6541005
-4.799007	DIMENSION	-0.7646067
-4.456584	DIMENSIONS	-1.070634
-5.497977	DIMPLES	-0.2561605
-3.678433	DIN	-1.781104
-4.035579	DINNER	-1.526945
-4.895917	DINOSAUR	-0.6962017
-4.895917	DIOXIDE	-0.6911329
-5.497977	DIPSON	-0.3010286
-4.594887	DIRECT	-0.9541721
-5.497977	DIRECTED	-0.3010286
-3.506751	DIRECTION	-1.942131
-4.594887	DIRECTLY	-1.085866
-5.497977	DIRECTOR	-0.3004625
-4.719826	DIRTY	-1.242788
-5.497977	DISABLED	-0.3001889
-5.196947	DISABLING	-0.4758666
-5.497977	DISADVANTAGE	-0.2561605
-5.020855	DISAGREEMENT	-0.6019386
-4.083004	DISAPPEARED	-1.376124
-4.895917	DISAPPOINT	-0.6541005
-3.622916	DISAPPOINTED	-2.015738
-5.497977	DISAPPROVAL	-0.2561605
-4.895917	DISASTER	-0.6408341
-4.799007	DISCERN	-0.8818902
-4.799007	DISCIPLINE	-0.7247267
-5.497977	DISCLAIMERS	-0.2937125
-5.196947	DISCLOSURE	-0.4694135
-5.497977	DISCOTHEQUE	-0.2711242
-5.497977	DISCOVERED	-0.2923323
-4.895917	DISCOVERIES	-0.6988389
-5.196947	DISCOVERING	-0.4768038
-4.267528	DISCOVERY	-1.225367
-5.497977	DISCREPANCY	-0.3009099
-5.497977	DISCRIMINATED	-0.3003534
-4.293857	DISCUSS	-1.635656
-4.799007	DISCUSSION	-0.8382753
-4.652879	DISGUISED	-1.080903
-5.196947	DISGUSTED	-0.4746763
-4.799007	DISGUSTINGLY	-0.8831379
-4.543734	DISH	-0.9551305
-5.020855	DISHEVELLED	-0.593513
-5.497977	DISHONEST	-0.2561605
-4.293857	DISK	-1.374475
-4.719826	DISMANTLED	-0.81438
-4.652879	DISMISSED	-0.9015252
-4.293857	DISMOUNTED	-1.326721
-5.196947	DISORGANIZED	-0.4748608
-5.196947	DISORIENTATION	-0.4322518
-5.497977	DISPERSE	-0.2711242
-5.020855	DISPERSED	-0.5571905
-5.196947	DISPERSION	-0.4322518
-5.497977	DISPLACED	-0.3010286
-4.050819	DISPLAY	-1.600424
-5.497977	DISPLAYED	-0.3010286
-4.895917	DISREGARD	-0.6967193
-4.719826	DISREGARDED	-1.242788
-5.196947	DISRUPTED	-0.476323
-3.448759	DISTANCE	-2.411224
-3.799007	DISTANT	-1.851952
-4.594887	DISTRACTED	-0.9517518
-5.497977	DISTRIBUTED	-0.3010286
-4.497977	DISTRICT	-1.041379
-5.020855	DISTRO	-0.6000991
-4.895917	DISTRUSTFUL	-0.6912622
-5.020855	DISTURBED	-0.5239019
-4.895917	DISTURBING	-0.6988596
-5.020855	DISTURBINGLY	-0.602049
-4.799007	DITCH	-0.8382753
-4.652879	DIVE	-1.092347
-5.196947	DIVERSE	-0.4769957
-4.895917	DIVORCE	-0.6541005
-4.895917	DIVULGE	-0.6541005
-5.497977	DIY	-0.301012
-5.196947	DIZZY	-0.4322518
-5.020855	DJ	-0.6019785
-5.497977	DLL	-0.2561605
-2.476788	DO	-3.487079
-5.020855	DOC	-0.6020448
-5.497977	DOCS	-0.2561605
-4.175757	DOCTOR	-1.395106
-4.652879	DOCTORS	-1.338717
-5.497977	DOCUMENT	-0.2711242
-4.594887	DODGES	-0.9456955
-4.895917	DODGY	-0.6989507
-4.456584	DOE	-1.034166
-3.418796	DOES	-2.796593
-3.563478	DOESN'T	-2.126257
-4.321886	DOESNT	-1.639704
-4.652879	DOG	-0.9601432
-4.594887	DOGWALKERS	-0.909373
-3.313285	DOING	-2.510165
-5.497977	DOLL	-0.2987696
-4.418796	DOLLAR	-1.172848
-3.374125	DOLLARS	-2.171711
-4.719826	DOLPHINS	-1.287545
-5.196947	DOMAIN	-0.4742904
-4.719826	DOMINATED	-1.287178
-5.020855	DOMINATING	-0.6020559
-5.497977	DON	-0.3010286
-2.496676	DON'T	-3.453495
-5.196947	DONALD	-0.4710172
-5.497977	DONATING	-0.3009969
-3.321886	DONE	-2.332874
-4.895917	DONKEY	-0.6541005
-3.906912	DONT	-2.449446
-3.719826	DOOR	-3.873045
-4.895917	DOORMAT	-0.6541005
-4.418796	DOORS	-1.059997
-4.083004	DOORWAY	-1.38641
-4.719826	DOPE	-0.8448483
-5.196947	DOPING	-0.4771185
-5.497977	DORMITORY	-0.2561605
-4.066613	DOT	-1.43945
-3.979463	DOTS	-1.486609
-4.799007	DOUBLED	-0.8828053
-3.979463	DOUBT	-1.501573
-4.384033	DOUBTS	-1.139223
-4.895917	DOUG	-0.6989534
-4.594887	DOUG'S	-0.9455448
-4.497977	DOUGH	-1.429595
-5.497977	DOUGHNUTS	-0.2996522
-4.594887	DOUGLAS	-0.909373
-2.93095	DOWN	-2.647175
-5.497977	DOWNLOAD	-0.3010286
-5.497977	DOWNLOADED	-0.2561605
-5.497977	DOWNSIDE	-0.2933222
-5.020855	DOWNSTAIRS	-0.5571905
-5.497977	DOWNWARD	-0.3010258
-4.799007	DOYLE	-0.8382753
-4.652879	DOZEN	-1.092834
-5.020855	DOZENS	-0.5943522
-5.497977	DR	-0.3010286
-5.196947	DRAFT	-0.4771033
-5.020855	DRAFTY	-0.6013047
-5.020855	DRAGON	-0.5571858
-4.799007	DRAGONFLY	-0.7332757
-4.543734	DRAGONS	-0.9914529
-5.497977	DRAINED	-0.2994791
-5.497977	DRAMATICALLY	-0.3006338
-4.020855	DRANK	-3.616056
-4.895917	DRAWER	-0.692866
-4.456584	DRAWING	-1.068227
-4.719826	DRAWINGS	-1.28765
-4.543734	DRAWN	-0.9981236
-3.918193	DREADFUL	-1.579118
-3.175757	DREAM	-2.626951
-4.497977	DREAMED	-1.033685
-5.020855	DREAMER	-0.5997289
-4.321886	DREAMING	-1.315721
-4.035579	DREAMLAND	-1.432252
-5.020855	DREAMLIKE	-0.601795
-3.558458	DREAMS	-2.072116
-4.719826	DREAMT	-1.28034
-4.719826	DRESS	-0.7869622
-3.742102	DRESSED	-2.51351
-4.293857	DREW	-1.323818
-4.719826	DRIBBLED	-1.287149
-4.543734	DRIED	-1.05921
-4.456584	DRIEDUP	-1.079166
-4.035579	DRIFT	-1.477074
-4.895917	DRIFTED	-0.6970091
-4.799007	DRILL	-0.7326525
-5.497977	DRILLING	-0.3010107
-3.790407	DRINK	-1.717489
-4.351849	DRINKING	-1.166223
-5.020855	DRIVE	-0.5957544
-4.895917	DRIVEL	-0.6541005
-3.472671	DRIVER	-2.211136
-4.136249	DRIVERS	-1.483495
-4.242704	DRIVING	-3.429716
-5.497977	DRONE	-0.3010286
-4.652879	DROP	-1.062944
-4.799007	DROPLET	-0.8754371
-3.749789	DROPPED	-2.157434
-4.006615	DROPPING	-1.504335
-5.020855	DROUGHT	-0.6020311
-5.497977	DROWNED	-0.2561605
-4.895917	DROWNING	-0.6989065
-3.906912	DRUGS	-1.55719
-4.799007	DRUGSTORE	-0.8382753
-4.895917	DRUMS	-0.6540852
-3.874727	DRUNK	-1.632695
-5.020855	DRUNKEN	-0.6020559
-4.456584	DRY	-1.217515
-4.799007	DUBIOUS	-0.8382753
-5.196947	DUCK	-0.4685742
-5.497977	DUCKS	-0.2561605
-4.895917	DUCKSHOOTING	-0.6982768
-4.497977	DUE	-1.029447
-4.895917	DUETS	-0.6989135
-4.594887	DUG	-0.9521097
-5.020855	DUMB	-0.5997996
-5.497977	DUMPLINGS	-0.2954308
-4.020855	DUNE	-1.443242
-3.895917	DUNES	-1.677886
-5.196947	DUNGEON	-0.4746763
-4.799007	DURABLE	-0.7681932
-3.941674	DURING	-1.780154
-4.719826	DUSK	-1.281554
-3.685063	DUST	-1.958331
-5.020855	DUSTY	-0.6020545
-4.719826	DVD	-1.286879
-4.719826	DYING	-0.8413844
-5.196947	DYNAMICALLY	-0.4771185
-4.652879	DYNAMITE	-1.04798
-3.48514	EACH	-2.403637
-4.895917	EAGER	-0.6870239
-4.155554	EAR	-1.308484
-3.941674	EARLIER	-1.70817
-3.448759	EARLY	-4.140114
-4.321886	EARN	-1.195422
-5.020855	EARNED	-0.5961546
-5.196947	EARS	-0.4322518
-3.216944	EARTH	-4.380633
-5.020855	EARTHQUAKE	-0.5571905
-4.351849	EASELS	-1.167544
-4.321886	EASIER	-1.376376
-5.497977	EASIEST	-0.2890839
-4.543734	EASILY	-1.10419
-3.835219	EAST	-1.618644
-4.895917	EASTER	-0.6541005
-3.953909	EASTWARD	-1.511433
-3.885193	EASY	-1.741156
-3.646719	EAT	-1.994367
-4.293857	EATING	-1.367741
-4.594887	EATS	-1.395993
-4.497977	ECHOED	-1.039531
-5.020855	ECLIPSE	-0.6020421
-5.196947	ECONOMISTS	-0.4322518
-4.799007	EDDIE	-0.8831379
-3.757614	EDGE	-1.693531
-4.719826	EDGES	-1.242788
-5.020855	EDINBURGH	-0.5992917
-4.895917	EDITING	-0.6989245
-4.594887	EDITION	-1.341257
-4.456584	EDITOR	-1.120276
-4.594887	EDUCATION	-1.348862
-4.799007	EDWARD	-0.8745978
-4.543734	EFFECTIVELY	-1.189476
-4.543734	EFFICIENT	-1.052521
-5.497977	EFFORT	-0.2890839
-5.497977	EFFORTLESSLY	-0.2890839
-5.497977	EFFORTS	-0.2985393
-4.456584	EGG	-1.034312
-4.456584	EGGS	-1.07042
-3.835219	EGYPT	-1.769673
-4.456584	EGYPTIAN	-1.079011
-4.895917	EIFFEL	-0.698948
-5.497977	EIGENVECTORS	-0.2933222
-4.543734	EIGHT	-1.442496
-4.895917	EIGHTEEN	-0.6912622
-5.020855	EIGHTH	-0.5571905
-3.844764	EITHER	-1.602961
-4.719826	EL	-1.28765
-5.196947	ELATION	-0.4749884
-4.136249	ELBOWED	-1.377961
-3.906912	ELBOWING	-1.600415
-4.719826	ELDER	-1.285525
-4.497977	ELDERLY	-0.9965231
-4.543734	ELDERS	-0.9551305
-4.895917	ELEANOR	-0.6541005
-5.497977	ELECTED	-0.3001308
-4.895917	ELECTION	-0.6987782
-5.020855	ELECTRICIAN	-0.6016998
-4.594887	ELECTRICITY	-1.098575
-5.196947	ELEMENT	-0.4694135
-4.497977	ELEMENTAL	-1.041342
-4.497977	ELEMENTS	-1.431278
-5.497977	ELEPHANTS	-0.2924829
-4.652879	ELEVATOR	-0.9629737
-4.719826	ELEVATORS	-1.28628
-3.953909	ELEVEN	-1.548985
-5.196947	ELISA	-0.4322518
-4.719826	ELIXIR	-1.27995
-5.020855	ELIZABETH	-0.6020462
-5.020855	ELKS	-0.6006822
-5.196947	ELLIE	-0.4770716
-4.895917	ELSA	-0.6989645
-3.594887	ELSE	-1.873732
-5.196947	ELSE'S	-0.4771075
-5.497977	ELSEWHERE	-0.2561605
-5.020855	ELVIS	-0.5571905
-5.020855	EMACS	-0.5813028
-5.497977	EMAIL	-0.2994791
-3.874727	EMAILS	-1.585887
-4.799007	EMANATING	-0.881594
-4.384033	EMBARRASSED	-3.249388
-5.196947	EMBARRASSING	-0.4765925
-5.497977	EMBASSY	-0.2994791
-3.646719	EMBEDDED	-1.806867
-4.719826	EMBOSSED	-1.282622
-3.807781	EMERALD	-1.843789
-4.594887	EMERALDS	-0.909373
-4.652879	EMERGED	-1.086944
-4.652879	EMERGENCY	-0.9631971
-5.497977	EMITS	-0.2561605
-5.497977	EMITTING	-0.3001267
-5.196947	EMMA	-0.4771185
-5.196947	EMOTICONS	-0.4757434
-5.196947	EMOTION	-0.4322518
-5.020855	EMOTIONAL	-0.6020476
-5.020855	EMPATHY	-0.5995693
-5.497977	EMPHASIZED	-0.2954308
-5.497977	EMPHATICALLY	-0.2561605
-5.497977	EMPLACED	-0.2959937
-3.895917	EMPLOYED	-1.582757
-4.719826	EMPLOYEES	-1.242788
-4.066613	EMPTY	-1.497208
-4.066613	ENCAMPMENT	-1.393733
-5.196947	ENCHANTED	-0.474364
-5.196947	ENCODING	-0.4322518
-4.652879	ENCOUNTERED	-1.08604
-4.652879	ENCOUNTERS	-1.090404
-4.719826	ENCRUSTED	-1.285213
-5.497977	ENCRYPTING	-0.2711242
-4.543734	ENCRYPTION	-0.9544659
-4.719826	ENCYCLOPEDIA	-1.286813
-3.330659	END	-2.094684
-4.242704	ENDED	-1.586979
-4.456584	ENDLESS	-1.913335
-5.020855	ENDTOEND	-0.5571124
-4.321886	ENEMIES	-1.586558
-4.175757	ENEMY	-1.341511
-4.497977	ENERGY	-0.978623
-5.020855	ENGAGED	-0.5571905
-4.719826	ENGAGEMENT	-0.8331208
-4.895917	ENGAGING	-0.6989645
-4.799007	ENGINE	-0.7301416
-5.196947	ENGINEER	-0.4685742
-4.895917	ENGINEERING	-0.6968372
-5.497977	ENGINEERS	-0.2561605
-5.497977	ENGINES	-0.3001847
-4.799007	ENGLISH	-0.7667806
-3.01941	ENGLISHMAN	-2.737999
-4.799007	ENGLISHMAN'S	-0.8829103
-4.652879	ENHANCEMENT	-0.8582006
-3.807781	ENJOY	-1.842994
-4.418796	ENJOYED	-1.917046
-4.594887	ENJOYING	-0.9529201
-4.155554	ENORMOUS	-1.361665
-3.548587	ENOUGH	-1.9144
-5.196947	ENQUIRE	-0.475274
-5.497977	ENRAGED	-0.2561605
-4.136249	ENTER	-1.406114
-3.835219	ENTERED	-1.581282
-4.136249	ENTERING	-1.33461
-5.196947	ENTERPRISE	-0.4746305
-4.799007	ENTERS	-0.8831338
-5.196947	ENTERTAINMENT	-0.4322518
-3.816736	ENTIRE	-2.131668
-3.781973	ENTIRELY	-1.716055
-5.196947	ENTITY	-0.4757642
-4.594887	ENTRANCE	-0.9422964
-5.497977	ENTRY	-0.3010148
-5.497977	ENUMERATE	-0.3010272
-5.497977	ENUMERATING	-0.2711242
-5.497977	ENVELOPE	-0.2959937
-4.594887	ENVIRONMENT	-0.9083161
-4.293857	ENVY	-1.220851
-5.497977	EP	-0.2933222
-5.196947	EPIC	-0.4771185
-5.196947	EPILEPSY	-0.4743529
-5.020855	EQUATION	-0.5941836
-5.497977	EQUATIONS	-0.2711242
-4.543734	EQUIPMENT	-0.9551305
-5.497977	EQUIPPED	-0.2985851
-4.594887	EQUITY	-0.9492062
-4.594887	EQUIVALENT	-0.9541984
-5.196947	ERADICATED	-0.4322518
-4.351849	ERASED	-1.144712
-4.652879	ERIC	-0.9022018
-5.196947	ERIK	-0.4765538
-5.497977	ERIN	-0.2561605
-5.497977	ERNIE'S	-0.3004432
-5.196947	ERROR	-0.4322288
-5.196947	ERRORPRONE	-0.4766712
-5.497977	ERRORS	-0.3010286
-5.497977	ERUPTION	-0.3009582
-4.652879	ESCALATOR	-1.090621
-4.799007	ESCAPADE	-0.8831338
-4.456584	ESCAPE	-1.137571
-4.384033	ESCAPED	-1.464797
-4.175757	ESCAPING	-1.34029
-4.652879	ESCORTS	-1.090621
-4.100037	ESPECIALLY	-1.849857
-4.799007	ESPERANTO	-0.8821392
-5.497977	ESPRESSO	-0.2924829
-5.497977	ESSENTIALLY	-0.3010272
-4.418796	ESTABLISH	-1.105246
-5.497977	ESTABLISHING	-0.2923323
-5.497977	ESTATE	-0.3009969
-5.020855	ESTIMATE	-0.5943522
-5.020855	ESTIMATING	-0.6020559
-5.020855	ESTUARY	-0.5999272
-5.497977	ETERNITY	-0.2561605
-4.594887	ETHICAL	-1.143882
-5.020855	ETHICS	-0.6020145
-4.267528	EUROPE	-1.20997
-5.196947	EUROPEAN	-0.4768839
-5.196947	EUROS	-0.4322518
-5.497977	EVALUATE	-0.2951246
-4.799007	EVALUATION	-0.8827114
-4.594887	EVE	-0.9069505
-3.035579	EVEN	-3.474884
-4.196947	EVENING	-1.44244
-5.196947	EVENT	-0.4322518
-4.321886	EVENTUALLY	-1.615771
-3.339614	EVER	-3.214727
-3.179914	EVERY	-2.375746
-3.825879	EVERYBODY	-3.479852
-4.895917	EVERYDAY	-0.698901
-3.134365	EVERYONE	-3.123398
-5.196947	EVERYONE'S	-0.477113
-2.999666	EVERYTHING	-2.430857
-5.020855	EVERYTHING'LL	-0.6000409
-4.543734	EVERYTHING'S	-1.44154
-4.196947	EVERYWHERE	-1.241686
-4.799007	EVIDENCE	-0.7688648
-4.066613	EVIDENT	-1.435212
-5.497977	EVIDENTLY	-0.3008906
-4.136249	EVIL	-1.576249
-4.652879	EVOKES	-1.092518
-5.196947	EVOLUTIONARY	-0.4771171
-4.652879	EVOLVE	-1.091294
-4.267528	EVOLVED	-1.218067
-4.895917	EXACT	-0.6989589
-4.083004	EXACTLY	-1.503968
-5.196947	EXAM	-0.4760312
-4.719826	EXAMINED	-1.242788
-4.594887	EXAMPLE	-1.389053
-5.020855	EXAMPLES	-0.6013806
-4.652879	EXCAVATION	-1.04798
-4.799007	EXCEL	-0.881012
-5.497977	EXCELLENT	-0.3010286
-4.035579	EXCEPT	-1.911224
-5.497977	EXCERPT	-0.2561605
-4.384033	EXCHANGE	-1.143671
-4.456584	EXCHANGED	-1.913354
-3.757614	EXCITED	-1.690143
-4.594887	EXCITEMENT	-0.909373
-3.60035	EXCITING	-1.857369
-4.799007	EXCLUSIVE	-0.8711988
-4.321886	EXCUSE	-1.297821
-5.020855	EXECUTE	-0.5933623
-5.497977	EXECUTION	-0.2949259
-4.719826	EXECUTIVE	-1.287633
-4.799007	EXERCISE	-0.775655
-4.242704	EXHAUSTED	-1.267901
-5.196947	EXHAUSTION	-0.4771185
-5.497977	EXHIBITION	-0.3010217
-5.020855	EXHILARATED	-0.5571905
-5.020855	EXHILARATING	-0.5901139
-4.719826	EXIST	-1.242788
-4.719826	EXISTED	-1.287572
-5.497977	EXISTING	-0.3010203
-4.719826	EXISTS	-1.257752
-4.652879	EXIT	-0.9632093
-4.543734	EXITED	-0.9700942
-5.020855	EXOSKELETON	-0.5571905
-4.497977	EXPAND	-0.9965231
-5.196947	EXPANDED	-0.4771144
-4.799007	EXPECT	-0.7310377
-5.497977	EXPECTANTLY	-0.2561605
-4.652879	EXPECTATIONS	-1.344745
-5.020855	EXPECTED	-0.5961546
-4.799007	EXPECTING	-0.7262843
-4.895917	EXPENSES	-0.6541005
-4.652879	EXPENSIVE	-0.8577198
-4.117765	EXPERIENCE	-3.48537
-5.196947	EXPERIENCED	-0.4472155
-5.196947	EXPERIENCES	-0.4715221
-4.497977	EXPERIENCING	-1.20123
-5.497977	EXPERIMENT	-0.2561605
-4.895917	EXPERIMENTAL	-0.6989645
-4.895917	EXPERIMENTS	-0.6525725
-4.895917	EXPERTLY	-0.6989645
-4.384033	EXPERTS	-1.136246
-5.196947	EXPIRED	-0.4322518
-3.628745	EXPLAIN	-2.250516
-3.825879	EXPLAINED	-1.597047
-5.020855	EXPLAINING	-0.5721543
-4.719826	EXPLANATION	-1.286813
-5.497977	EXPLANATIONS	-0.2996522
-5.196947	EXPLODE	-0.4746763
-4.895917	EXPLODED	-0.6541005
-5.497977	EXPLOIT	-0.2982616
-5.196947	EXPLOITATION	-0.4322518
-5.196947	EXPLOITED	-0.4685742
-5.020855	EXPLORATION	-0.5477028
-4.799007	EXPLORERS	-0.8822097
-4.652879	EXPLORING	-1.04798
-3.966498	EXPLOSION	-1.499198
-4.799007	EXPONENTIALLY	-0.8382753
-5.497977	EXPORT	-0.301019
-5.020855	EXPOSE	-0.6002002
-5.497977	EXPOSED	-0.2959937
-4.895917	EXPRESS	-0.6531033
-4.456584	EXPRESSION	-1.072958
-4.799007	EXQUISITE	-0.8382753
-5.497977	EXTEND	-0.2924829
-4.799007	EXTENDED	-0.8711988
-4.293857	EXTENSION	-1.161871
-5.020855	EXTENSIONS	-0.5898557
-5.497977	EXTENSIVE	-0.2561605
-5.196947	EXTERNAL	-0.4771185
-5.497977	EXTERNALITIES	-0.2996522
-3.799007	EXTINGUISHED	-1.653213
-5.497977	EXTINGUISHER	-0.2924829
-4.384033	EXTRA	-1.511038
-5.497977	EXTRAORDINARY	-0.3009872
-5.497977	EXTRAS	-0.2996729
-5.497977	EXTRATERRESTRIALS	-0.2996522
-3.992827	EXTREMELY	-1.51843
-4.594887	EXULTANT	-0.909373
-3.712647	EYE	-1.739233
-4.895917	EYEING	-0.6690643
-3.267528	EYES	-2.415837
-4.594887	F	-0.9243368
-3.671902	FACE	-1.774763
-5.020855	FACEBOOK	-0.6017357
-4.175757	FACES	-1.391871
-4.895917	FACILITY	-0.6970091
-5.020855	FACING	-0.5721439
-4.083004	FACT	-1.374612
-4.799007	FACULTY	-0.8817698
-4.543734	FADED	-1.092247
-4.594887	FAILED	-1.0011
-4.719826	FAILING	-1.242788
-4.050819	FAILURE	-1.411316
-3.719826	FAINT	-1.7402
-3.918193	FAINTLY	-1.590958
-4.456584	FAIR	-1.074114
-4.219223	FAITH	-1.250573
-4.719826	FAKE	-1.242788
-5.497977	FAKED	-0.3002317
-4.652879	FAKER	-1.299246
-3.941674	FALCON	-1.48629
-4.418796	FALCON'S	-1.287539
-3.992827	FALL	-1.823134
-3.493655	FALLEN	-2.190279
-3.448759	FALLING	-2.438697
-4.799007	FALLS	-0.8382753
-3.765583	FAMILIAR	-1.725856
-4.719826	FAMILIES	-0.842263
-4.066613	FAMILY	-1.396297
-4.136249	FAMOUS	-1.562329
-5.020855	FAN	-0.6020558
-5.196947	FANS	-0.4694135
-5.020855	FANTASTIC	-0.5571905
-5.497977	FANTASY	-0.2937125
-3.330659	FAR	-2.912864
-4.895917	FARCE	-0.6541005
-5.020855	FAREWELL	-0.5901139
-4.100037	FARING	-1.414617
-5.020855	FARM	-0.5987303
-4.321886	FARTHER	-1.391832
-5.196947	FARTING	-0.4322518
-4.543734	FASCINATING	-0.99992
-4.196947	FASCINATION	-1.271137
-5.497977	FASHIONABLE	-0.2561605
-4.219223	FAST	-1.238383
-3.941674	FASTER	-1.514076
-5.497977	FASTEST	-0.3010148
-5.196947	FASTFOOD	-0.4743529
-4.267528	FAT	-1.25513
-5.196947	FATAL	-0.4746305
-5.020855	FATE	-0.5571905
-3.511205	FATHER	-2.158686
-4.594887	FATHER'S	-1.055898
-3.380706	FATIMA	-2.106471
-4.196947	FATIMA'S	-1.321895
-4.719826	FAULT	-0.8410434
-4.895917	FAULTY	-0.6541005
-4.351849	FAVOR	-1.22766
-4.196947	FAVORABILITY	-1.38231
-4.895917	FAVORITE	-0.6988899
-5.020855	FAYOUM	-0.5571905
-3.534189	FEAR	-2.263326
-4.083004	FEARFUL	-1.533721
-5.497977	FEARLESS	-0.2561605
-4.652879	FEARS	-1.090518
-4.799007	FEATURE	-0.7331424
-3.979463	FEATURES	-1.486609
-4.799007	FEBRUARY	-0.7778006
-4.543734	FED	-0.9679901
-5.020855	FEED	-0.5721543
-5.497977	FEEDFORWARD	-0.3010203
-3.48514	FEEL	-2.485098
-3.563478	FEELING	-2.315329
-4.652879	FEELINGS	-1.294567
-4.418796	FEELS	-1.112938
-3.719826	FEET	-1.726198
-5.497977	FEISTY	-0.3005067
-3.254939	FELL	-2.163842
-5.020855	FELLAS	-0.601951
-5.196947	FELLER	-0.4771171
-4.719826	FELLOW	-0.8394709
-4.719826	FELLOWS	-0.8354238
-3.358098	FELT	-2.231323
-5.020855	FEMALE	-0.6020559
-5.497977	FEMINIST	-0.3010286
-3.765583	FENCE	-1.685963
-4.799007	FENCES	-0.8382753
-5.497977	FERRET	-0.2561605
-4.799007	FERRY	-0.766137
-5.497977	FERTILIZER	-0.2561605
-5.497977	FERVOR	-0.2561605
-5.020855	FESTIVAL	-0.595956
-3.184109	FEW	-2.339126
-5.020855	FIBRE	-0.5571905
-4.895917	FICTION	-0.6541005
-5.020855	FIDGET	-0.6020559
-5.020855	FIDGETED	-0.6019427
-4.117765	FIELD	-1.350862
-4.117765	FIELDS	-1.874834
-4.895917	FIFTEEN	-0.6988583
-4.652879	FIFTH	-1.337921
-3.765583	FIFTY	-2.173206
-3.799007	FIGHT	-1.758078
-4.384033	FIGHTER	-1.137573
-3.742102	FIGHTING	-1.815467
-4.117765	FIGURE	-1.493588
-4.799007	FIGURED	-0.8817878
-4.219223	FIGURES	-1.293187
-4.497977	FILE	-1.134477
-4.895917	FILES	-0.6967096
-4.652879	FILL	-1.005293
-3.534189	FILLED	-2.769774
-5.196947	FILLING	-0.4472155
-5.020855	FILLS	-0.602049
-5.020855	FILMED	-0.5961546
-4.652879	FINAL	-0.9632109
-3.617163	FINALLY	-2.310096
-5.196947	FINANCIAL	-0.4771185
-2.951434	FIND	-3.524671
-3.854524	FINDING	-1.825396
-4.242704	FINDS	-1.244418
-4.293857	FINE	-1.184208
-4.895917	FINEST	-0.6541005
-4.719826	FINGER	-0.8136375
-5.196947	FINGERNAIL	-0.4322518
-4.594887	FINGERS	-1.39644
-4.456584	FINISH	-1.238671
-4.321886	FINISHED	-1.119915
-4.719826	FINISHING	-0.811812
-5.497977	FINLAND	-0.2561605
-3.316133	FIRE	-2.916394
-4.799007	FIREFOX	-0.7667578
-4.799007	FIREPLACE	-0.8803765
-4.384033	FIRES	-3.298649
-5.020855	FIREWALLS	-0.6011249
-5.020855	FIREWOOD	-0.5996151
-4.895917	FIREWORKS	-0.6541005
-4.035579	FIRING	-1.471522
-2.932129	FIRST	-3.328533
-3.953909	FISH	-1.542502
-5.020855	FISHING	-0.5571905
-5.497977	FISSURE	-0.2985851
-5.497977	FIST	-0.2942201
-4.594887	FIT	-1.395009
-4.895917	FITS	-0.6926644
-3.691797	FIVE	-2.602415
-4.652879	FIX	-0.8312224
-5.196947	FIXABLE	-0.472085
-5.497977	FIXATE	-0.2711242
-4.497977	FIXED	-1.097581
-4.895917	FLAG	-0.6540989
-5.020855	FLAGGED	-0.600505
-5.196947	FLAGS	-0.4761944
-4.050819	FLAKES	-1.453851
-3.671902	FLAME	-1.826783
-4.799007	FLAMING	-0.8831352
-5.497977	FLAMINGOS	-0.3010286
-5.196947	FLARING	-0.4771185
-3.652879	FLASH	-1.795012
-4.652879	FLASHING	-1.09284
-5.020855	FLASK	-0.6020559
-5.020855	FLAT	-0.5959475
-3.918193	FLATTENED	-1.589514
-5.020855	FLAVOR	-0.5571905
-4.497977	FLEE	-0.9965231
-3.895917	FLESH	-1.567914
-4.384033	FLEW	-1.131945
-5.196947	FLEXIBLE	-0.431817
-5.497977	FLICKERED	-0.299475
-3.594887	FLIGHT	-2.734339
-5.020855	FLIPPED	-0.6020559
-3.906912	FLOAT	-1.556746
-4.719826	FLOATED	-0.950013
-5.196947	FLOATS	-0.4751603
-4.066613	FLOCK	-1.373508
-4.242704	FLOOR	-1.224536
-5.497977	FLORA	-0.2561605
-5.020855	FLORESCENT	-0.6020214
-5.020855	FLORIDA	-0.5571905
-5.020855	FLOUR	-0.6006822
-4.543734	FLOURISH	-0.9551305
-5.196947	FLOWED	-0.4766118
-4.594887	FLOWER	-1.004712
-5.196947	FLOWERING	-0.4771144
-4.321886	FLOWERS	-1.599893
-5.020855	FLUCTUATION	-0.5970237
-5.497977	FLUFFY	-0.3010286
-4.799007	FLUID	-0.7720388
-3.966498	FLUNG	-1.544018
-4.497977	FLUTTERED	-1.041273
-4.321886	FLY	-1.291329
-4.418796	FLYING	-1.199733
-4.799007	FOAM	-0.8831366
-4.799007	FOCUS	-0.7311068
-5.497977	FOG	-0.2561605
-4.799007	FOGGY	-0.8827956
-5.497977	FOILED	-0.2998141
-5.497977	FOLD	-0.2711242
-4.895917	FOLDER	-0.6989204
-5.497977	FOLK	-0.2982616
-3.953909	FOLKS	-1.554427
-4.066613	FOLLOW	-3.516234
-4.100037	FOLLOWED	-1.825653
-3.906912	FOLLOWING	-1.701052
-4.895917	FOLLOWS	-0.6989465
-4.895917	FONDLED	-0.6962128
-3.691797	FOOD	-1.851269
-4.497977	FOOL	-0.9965033
-5.020855	FOOLED	-0.5571905
-4.719826	FOOLING	-1.287583
-4.196947	FOOT	-1.263596
-4.456584	FOOTBALL	-1.181311
-4.543734	FOOTING	-0.9914529
-4.652879	FOOTSTEPS	-1.04798
-2.242704	FOR	-3.276236
-3.929775	FORCE	-3.684028
-3.854524	FORCED	-1.64087
-4.219223	FORCES	-1.481084
-4.652879	FORCING	-1.090826
-4.652879	FORECAST	-0.8554577
-4.719826	FORECASTING	-1.257752
-4.006615	FOREHEAD	-1.450793
-5.020855	FOREIGN	-0.6020159
-4.351849	FOREIGNER	-1.588519
-5.497977	FORENSIC	-0.3010286
-4.652879	FOREST	-0.8846279
-4.384033	FOREVER	-1.098496
-3.589492	FORGET	-2.38315
-5.497977	FORGETS	-0.2711242
-3.685063	FORGOT	-2.591807
-3.765583	FORGOTTEN	-2.129183
-4.895917	FORK	-0.690423
-4.050819	FORM	-1.816741
-4.895917	FORMATION	-0.6541005
-5.020855	FORMATTING	-0.5943522
-4.117765	FORMED	-1.397907
-5.196947	FORMER	-0.4685742
-4.895917	FORMING	-0.6989534
-4.719826	FORMS	-1.285697
-5.020855	FORMULATE	-0.5933623
-4.456584	FORT	-1.072996
-4.293857	FORTH	-1.176092
-5.196947	FORTUNATELY	-0.4746305
-5.196947	FORTUNE	-0.4322518
-5.196947	FORTYTWO	-0.4743529
-5.497977	FORUMS	-0.3010203
-3.568558	FORWARD	-1.874668
-5.497977	FORWARDING	-0.3010038
-4.652879	FOUGHT	-1.345589
-2.904691	FOUND	-3.373229
-5.497977	FOUNTAIN	-0.3010217
-3.918193	FOUR	-2.03212
-4.719826	FOURLEAF	-1.28765
-4.895917	FOURTEEN	-0.6988182
-4.543734	FOURTH	-1.059943
-5.196947	FOURTY	-0.476848
-5.196947	FOX	-0.4322518
-5.020855	FOXES	-0.6006822
-5.497977	FOYER	-0.2561605
-5.497977	FRAME	-0.3001032
-5.497977	FRAMED	-0.3008851
-5.020855	FRANCE	-0.5571905
-5.497977	FRANCIS	-0.2561605
-4.543734	FRANCISCO	-0.9539524
-5.020855	FRANK	-0.595956
-5.020855	FRANK'S	-0.5933623
-4.719826	FRANTICALLY	-1.287628
-5.020855	FREAK	-0.6020517
-5.196947	FRED'S	-0.477102
-4.175757	FREE	-1.333081
-4.719826	FREEDOM	-0.7907409
-5.497977	FREEWAY	-0.2949259
-5.497977	FREEZE	-0.3010176
-4.543734	FREIGHT	-0.9999475
-4.594887	FRENCH	-1.351873
-4.652879	FRENZY	-1.04798
-5.196947	FREQUENCY	-0.477113
-5.196947	FREQUENTLY	-0.476323
-5.497977	FRESH	-0.30099
-5.020855	FRESHEN	-0.5961546
-4.543734	FRIDGE	-1.397599
-5.196947	FRIDGES	-0.4771185
-3.390767	FRIEND	-3.116135
-4.293857	FRIEND'S	-1.230423
-4.351849	FRIENDLY	-1.949742
-4.035579	FRIENDS	-1.423403
-5.497977	FRIES	-0.2988971
-4.020855	FRIGHTENED	-1.558562
-4.100037	FRIGHTENING	-1.413915
-5.497977	FRIGHTENINGLY	-0.3010286
-4.543734	FRINGES	-0.9922922
-5.497977	FRISK	-0.2994154
-4.895917	FROG	-0.6955944
-2.447984	FROM	-3.080678
-3.953909	FRONT	-1.605099
-5.497977	FROZEN	-0.3010203
-4.799007	FRUIT	-0.7301956
-5.020855	FRUITS	-0.5970237
-5.497977	FRUSTRATING	-0.2924829
-4.652879	FUEL	-0.9009516
-5.020855	FUELED	-0.6012618
-4.799007	FUGITIVES	-0.8745978
-4.799007	FULFILL	-0.8382753
-5.497977	FULFILLED	-0.3007194
-4.035579	FULL	-1.568444
-4.719826	FULLY	-0.8450222
-4.895917	FUMES	-0.6974192
-4.652879	FUN	-0.8582143
-4.267528	FUNCTION	-1.636518
-4.543734	FUNCTIONING	-0.9551305
-4.652879	FUNCTIONS	-0.8483275
-5.196947	FUNDAMENTAL	-0.4651752
-5.020855	FUNDED	-0.6012189
-4.895917	FUNDS	-0.6870239
-4.895917	FUNERALS	-0.6541005
-5.497977	FUNK	-0.2561605
-5.020855	FUNNIEST	-0.6018986
-4.035579	FUNNY	-1.673051
-4.799007	FURIOUS	-0.8821931
-4.895917	FURIOUSLY	-0.6541005
-4.719826	FURNACE	-0.8002239
-4.456584	FURTHER	-1.13874
-4.543734	FURTHEST	-0.9551305
-5.497977	FUSION	-0.3010286
-5.196947	FUSS	-0.475274
-4.719826	FUTILE	-0.7994782
-3.835219	FUTURE	-3.73857
-4.895917	G	-0.6939337
-5.497977	GADGETS	-0.2954308
-4.799007	GAL	-0.8830758
-5.497977	GALAXY	-0.2711242
-5.020855	GALE	-0.5571905
-4.321886	GALLOPED	-1.203994
-5.497977	GAMBLING	-0.2959937
-3.781973	GAME	-1.806793
-5.196947	GAMEPLAY	-0.4322518
-5.497977	GAMES	-0.2890839
-5.196947	GANGSTERS	-0.476164
-3.885193	GAP	-1.575309
-4.719826	GARBAGE	-0.7995518
-5.497977	GARBLED	-0.3010272
-3.685063	GARDEN	-2.278371
-3.844764	GARDENER	-1.845109
-5.196947	GARNISHED	-0.4322518
-4.006615	GARY	-1.505085
-3.408072	GAS	-2.235613
-4.035579	GASES	-1.469413
-4.799007	GASPED	-0.8815898
-4.267528	GATE	-1.299932
-4.100037	GATES	-1.466542
-4.652879	GATHERED	-0.8980453
-3.404555	GAVE	-2.483814
-5.196947	GAY	-0.4771158
-5.196947	GAZE	-0.4769432
-5.497977	GAZED	-0.2988971
-4.594887	GEAR	-1.089645
-4.799007	GEARS	-0.8382753
-5.497977	GEARSHIFTS	-0.2996522
-4.895917	GEESE	-0.6985849
-5.196947	GEL	-0.4322518
-5.497977	GELATO	-0.2924829
-5.020855	GEM	-0.595956
-4.384033	GENERAL	-1.289607
-4.895917	GENERALLY	-0.6892124
-5.020855	GENERATE	-0.6020559
-5.497977	GENERATING	-0.2711242
-5.020855	GENERATOR	-0.5565612
-5.497977	GENERIC	-0.2924829
-4.497977	GENEROSITY	-1.011487
-5.020855	GENEROUS	-0.5901139
-4.719826	GENIES	-1.285783
-5.196947	GENIUS	-0.4749884
-5.497977	GENRE	-0.2561605
-4.351849	GENTLE	-1.352701
-4.497977	GENTLEMEN	-1.020061
-3.966498	GENTLY	-1.648057
-4.895917	GENUINE	-0.6989521
-4.895917	GEOGRAPHIC	-0.6989645
-5.196947	GEOLOGY	-0.4771144
-5.497977	GEOMETRIC	-0.3010286
-5.497977	GEORGE	-0.2561605
-4.719826	GERMAN	-0.8375307
-4.719826	GERMANY	-0.8342413
-5.196947	GESTURE	-0.4634016
-2.657243	GET	-2.948889
-4.066613	GETS	-2.231363
-3.493655	GETTING	-2.530982
-4.652879	GHOST	-0.8577428
-4.799007	GHOSTLY	-0.8831117
-5.196947	GHOSTWRITING	-0.4715221
-4.384033	GIANT	-1.146105
-5.196947	GIFT	-0.4746305
-5.196947	GIGABYTES	-0.4322518
-4.456584	GIGANTIC	-1.079154
-4.895917	GIMME	-0.6690643
-5.020855	GIN	-0.5571155
-5.196947	GINGER	-0.4771157
-3.895917	GINGERBREAD	-1.612317
-5.020855	GIRAFFE	-0.5987303
-5.196947	GIRAFFES	-0.4757434
-3.345688	GIRL	-2.189851
-4.384033	GIRL'S	-1.250533
-5.196947	GIRLFRIEND	-0.476714
-4.456584	GIRLS	-1.172166
-5.020855	GITHUB	-0.5571858
-3.272667	GIVE	-2.979068
-4.497977	GIVEN	-1.272519
-4.418796	GIVES	-1.279714
-3.992827	GIVING	-1.516973
-4.719826	GIZA	-1.285167
-5.497977	GLACIERS	-0.2996522
-4.351849	GLAD	-1.334373
-3.941674	GLANCE	-1.562296
-3.979463	GLARINGLY	-1.531346
-5.196947	GLASGOW	-0.4769143
-4.100037	GLASS	-1.551227
-3.734549	GLASSES	-2.162955
-4.719826	GLIMPSE	-1.27995
-4.719826	GLITTERED	-1.282622
-4.543734	GLOBAL	-0.9914443
-5.497977	GLOCKENSPIEL	-0.3000783
-4.719826	GLOVE	-1.242788
-4.594887	GLOVES	-1.013311
-3.885193	GLOWED	-1.680611
-5.497977	GLUE	-0.2561605
-4.895917	GLUED	-0.6970091
-5.196947	GMO	-0.4757434
-2.914778	GO	-2.565519
-4.497977	GOAL	-0.9965231
-5.196947	GOAT	-0.4322518
-5.497977	GOATS	-0.3006448
-5.497977	GOD	-0.3005799
-5.196947	GODLIKE	-0.4322518
-4.456584	GODS	-1.078748
-5.196947	GODSEND	-0.4751603
-3.953909	GOES	-1.810423
-2.693837	GOING	-2.728906
-4.719826	GOINGS	-1.282622
-3.302077	GOLD	-2.479045
-4.456584	GOLDEN	-1.268913
-3.854524	GOLF	-1.65314
-3.594887	GONE	-1.84818
-3.712647	GONNA	-2.904654
-2.932129	GOOD	-3.458931
-5.497977	GOOD'LL	-0.2951246
-4.456584	GOODBYE	-1.254598
-4.895917	GOODMAN	-0.6870239
-4.719826	GOODS	-1.242788
-4.895917	GOOFY	-0.6541005
-4.799007	GOOGLE	-0.7770293
-5.020855	GORGEOUS	-0.6019537
-5.196947	GORILLA	-0.4737916
-2.754467	GOT	-2.73028
-4.196947	GOTTA	-1.761838
-4.497977	GOTTEN	-1.040787
-4.418796	GOVERNMENT	-1.065747
-4.384033	GOVERNOR	-1.098893
-4.594887	GOVERNS	-0.9528675
-5.196947	GOWN	-0.4322518
-4.895917	GRABBED	-0.6902723
-4.594887	GRACEFULLY	-1.34889
-5.497977	GRADIENT	-0.2561605
-3.979463	GRADUAL	-1.531298
-5.497977	GRADUATE	-0.2985851
-5.020855	GRAHAM	-0.5987303
-5.497977	GRAINS	-0.2933222
-5.196947	GRAMMAR	-0.4685713
-4.719826	GRAMMARS	-0.7844183
-4.321886	GRANDFATHER	-1.637143
-5.497977	GRANDFATHER'S	-0.3010286
-4.543734	GRANDMA	-1.174895
-5.497977	GRANDMA'S	-0.3010286
-4.594887	GRANDPA	-1.056435
-4.594887	GRANTED	-0.9243368
-5.497977	GRAPES	-0.2561605
-5.497977	GRAPH	-0.3010286
-5.497977	GRAPHIC	-0.3010162
-4.719826	GRASP	-1.285751
-4.351849	GRASPED	-1.167394
-4.895917	GRASS	-0.6877579
-4.456584	GRATEFUL	-1.064675
-3.992827	GRATING	-1.518288
-5.497977	GRATIS	-0.2561605
-5.020855	GRATITUDE	-0.5571905
-5.196947	GRAVE	-0.4322518
-3.665468	GRAVEL	-1.835203
-4.895917	GRAY	-0.6541005
-5.497977	GRAYED	-0.2996729
-3.573698	GREAT	-2.246747
-3.966498	GREATEST	-1.73342
-4.895917	GREATGRANDFATHER	-0.6989645
-5.497977	GREATLY	-0.3010093
-3.589492	GREEN	-2.739972
-3.941674	GREENISH	-1.568152
-4.652879	GREETED	-1.062944
-3.885193	GREETINGS	-1.62295
-4.497977	GREG	-1.185411
-5.196947	GRENADES	-0.4771185
-4.895917	GREW	-0.6980432
-3.864508	GREY	-1.643391
-5.497977	GRIFFIN	-0.2982616
-4.799007	GRILLED	-0.8382753
-5.497977	GRIME	-0.3010286
-5.497977	GRIPPERS	-0.2996522
-4.895917	GROCERIES	-0.6541005
-4.543734	GROOM	-0.9551305
-3.476788	GROUND	-2.078264
-4.242704	GROUP	-1.667374
-3.992827	GROUPS	-1.510806
-4.895917	GROUT	-0.6974192
-3.757614	GROW	-1.745795
-4.543734	GROWING	-0.988969
-4.456584	GROWN	-1.079131
-5.196947	GROWS	-0.4761944
-4.719826	GROWTH	-0.9423825
-5.020855	GRUBBING	-0.6020559
-4.799007	GUARANTEE	-0.7706666
-4.895917	GUARANTEED	-0.6690643
-5.196947	GUARANTEES	-0.4771185
-4.117765	GUARD	-1.397854
-5.020855	GUARDIAN	-0.6020241
-4.418796	GUARDS	-1.067368
-3.807781	GUESS	-1.786796
-5.497977	GUEST	-0.2561605
-5.196947	GUESTS	-0.4770661
-4.219223	GUIDE	-1.286051
-4.497977	GUIDES	-1.041233
-5.196947	GUILTY	-0.4746305
-4.543734	GUITAR	-1.103094
-5.497977	GUITARS	-0.3008381
-4.895917	GULLS	-0.6988431
-5.196947	GUM	-0.4322518
-3.992827	GUN	-1.5682
-5.497977	GUNMAN	-0.2890839
-3.864508	GUNS	-1.640215
-4.895917	GUTTED	-0.6690643
-3.418796	GUY	-2.479699
-4.020855	GUYS	-2.276746
-5.497977	GYM	-0.2890839
-5.196947	GYMNASTICS	-0.4760312
-4.242704	GYPSIES	-1.719897
-4.219223	GYPSY	-1.490435
-4.719826	HA	-1.28765
-2.117042	HAD	-3.673039
-4.267528	HADN'T	-1.620177
-4.136249	HAIR	-1.332281
-3.691797	HALF	-1.817999
-4.719826	HALL	-0.8002041
-5.020855	HALLWAY	-0.5933623
-5.497977	HALLWAYS	-0.2933222
-5.497977	HAMBURG	-0.2924829
-3.941674	HAMBURGER	-1.568152
-5.196947	HAMBURGERS	-0.4322518
-5.196947	HAMMER	-0.4751603
-5.497977	HAMSTER	-0.3009085
-3.348758	HAND	-2.253264
-4.799007	HANDED	-0.7716608
-5.020855	HANDHELD	-0.6020545
-3.906912	HANDLE	-1.812347
-4.799007	HANDLED	-0.7634279
-4.351849	HANDLES	-1.168381
-4.719826	HANDLING	-1.286627
-3.685063	HANDS	-1.946157
-4.895917	HANDSFREE	-0.6989631
-5.497977	HANDSOME	-0.3008644
-5.497977	HANDSTAND	-0.3009568
-5.497977	HANDWRITTEN	-0.3010217
-4.895917	HANDY	-0.6485125
-4.155554	HANG	-1.343021
-3.734549	HANGING	-1.718516
-5.196947	HANGOVER	-0.4322518
-5.196947	HANNELORE	-0.4743529
-3.354962	HAPPEN	-2.441864
-3.622916	HAPPENED	-2.012324
-3.844764	HAPPENING	-2.057736
-4.020855	HAPPENS	-2.095176
-4.652879	HAPPIER	-1.04798
-4.543734	HAPPILY	-0.9914529
-3.918193	HAPPINESS	-1.978819
-3.578899	HAPPY	-2.282299
-5.020855	HARASSMENT	-0.6020283
-3.953909	HARD	-1.859583
-4.293857	HARDER	-1.323007
-5.497977	HARDEST	-0.3008685
-3.765583	HARDLY	-1.979922
-5.497977	HARDWARE	-0.2561605
-4.719826	HARM	-0.76694
-5.497977	HARMONY	-0.2985393
-4.418796	HARRY	-1.471861
-5.497977	HARRY'LL	-0.3010176
-5.196947	HARTMAN'S	-0.4771185
-5.020855	HARVEST	-0.5959419
-2.884135	HAS	-2.663106
-4.895917	HASH	-0.6989286
-4.895917	HASHING	-0.6541005
-4.219223	HASN'T	-1.73207
-4.799007	HASSAN	-0.8775457
-4.418796	HASTY	-1.113866
-4.136249	HAT	-1.328344
-4.136249	HATE	-1.367767
-4.719826	HATTER	-1.242788
-4.895917	HAUNTED	-0.6541005
-5.020855	HAUNTS	-0.6016749
-2.332732	HAVE	-3.471358
-3.605882	HAVEN'T	-2.727812
-5.020855	HAVENT	-0.6012589
-3.611486	HAVING	-2.200295
-3.885193	HAWKS	-2.233421
-5.196947	HAY	-0.4322518
-1.808047	HE	-4.417906
-4.321886	HE'D	-1.304911
-4.083004	HE'LL	-1.672436
-3.293857	HE'S	-2.258259
-4.175757	HEAD	-2.167839
-4.456584	HEADCLOTH	-1.074145
-4.456584	HEADING	-1.265085
-5.196947	HEADPHONES	-0.477044
-5.196947	HEADQUARTERS	-0.4761696
-4.594887	HEADS	-0.8998793
-4.594887	HEALED	-0.909373
-4.895917	HEALTH	-0.6540821
-5.196947	HEALTHY	-0.4322334
-3.885193	HEAP	-1.615541
-4.117765	HEAPS	-1.392341
-3.524849	HEAR	-1.962553
-3.083004	HEARD	-2.492069
-5.497977	HEARING	-0.2994791
-4.543734	HEARS	-0.9981527
-3.010839	HEART	-2.583508
-4.196947	HEARTS	-1.416866
-4.799007	HEARTY	-0.8829848
-3.749789	HEAT	-1.701465
-3.895917	HEATHER	-1.664022
-5.020855	HEATING	-0.6000991
-4.594887	HEAVED	-0.9456955
-4.242704	HEAVEN	-1.230619
-5.497977	HEAVENS	-0.3008381
-4.799007	HEAVILY	-0.732922
-3.929775	HEAVY	-2.403657
-5.196947	HECK	-0.4743529
-5.196947	HECTIC	-0.4765966
-4.136249	HEED	-1.335325
-4.895917	HEEHAW	-0.690423
-5.196947	HEELOT	-0.4322518
-5.196947	HEELS	-0.4694135
-3.918193	HEIGHT	-1.581703
-4.719826	HEIGHTS	-1.242788
-3.765583	HELD	-2.4654
-4.543734	HELEN	-1.392102
-4.719826	HELLO	-0.9381442
-3.219223	HELP	-3.278219
-3.799007	HELPED	-2.136781
-3.941674	HELPER	-1.523332
-4.594887	HELPING	-1.058304
-4.719826	HELPS	-1.275712
-5.020855	HEMISPHERE	-0.5943522
-5.497977	HEN	-0.2949259
-3.247557	HENDERSON	-2.237449
-3.966498	HENDERSON'S	-1.543843
-2.684396	HER	-2.899686
-5.196947	HERALD	-0.4694135
-4.719826	HERD	-1.285525
-2.742865	HERE	-2.869509
-4.219223	HERE'S	-1.365093
-5.497977	HERMAN	-0.2561605
-4.456584	HERO	-1.030996
-5.497977	HEROICALLY	-0.3010203
-5.196947	HEROINE	-0.4694135
-4.351849	HERS	-1.121734
-4.719826	HERSELF	-0.7983073
-4.895917	HET	-0.6983045
-5.020855	HEURISTIC	-0.6020365
-4.543734	HEY	-1.095732
-5.497977	HIBERNATION	-0.2924829
-4.497977	HID	-1.201116
-3.864508	HIDDEN	-1.703118
-5.497977	HIDE	-0.2959937
-4.175757	HIDING	-1.34014
-5.497977	HIERARCHY	-0.2982616
-4.456584	HIGGINS	-1.869331
-3.543734	HIGH	-2.14423
-4.799007	HIGHER	-0.7776998
-4.497977	HIGHEST	-1.041213
-5.020855	HIGHLIGHTING	-0.5964608
-5.196947	HIGHLY	-0.4771061
-5.020855	HIKING	-0.6019358
-5.020855	HILARIOUS	-0.5571905
-4.175757	HILL	-1.288065
-4.799007	HILLARY	-0.8382753
-2.430534	HIM	-3.127952
-3.1214	HIMSELF	-2.94121
-4.895917	HINTED	-0.6930646
-4.321886	HIRE	-3.360077
-4.050819	HIRES	-1.461687
-4.895917	HIRING	-0.6986567
-2.198688	HIS	-3.82353
-3.918193	HISSING	-2.033333
-5.497977	HISTOGRAM	-0.301012
-4.219223	HISTORY	-1.254423
-4.175757	HIT	-1.309536
-5.196947	HITTING	-0.4472155
-5.497977	HIV	-0.2561605
-5.497977	HOCKEY	-0.3010162
-5.020855	HOISTED	-0.6011332
-3.781973	HOLD	-2.500504
-4.006615	HOLDING	-1.660781
-3.408072	HOLE	-2.246192
-5.020855	HOLES	-0.5970237
-4.652879	HOLIDAY	-1.04798
-5.497977	HOLLERED	-0.3001488
-3.966498	HOLLOW	-1.499198
-4.895917	HOLLY	-0.6983473
-5.497977	HOLLYWOOD	-0.2561605
-5.020855	HOLY	-0.6019316
-3.221515	HOME	-2.55003
-5.497977	HOMEBOY	-0.3010286
-5.020855	HOMELESS	-0.5934805
-4.418796	HOMES	-1.107442
-5.196947	HOMESICK	-0.4322518
-5.497977	HOMEWORK	-0.3002511
-5.196947	HOMIES	-0.4322518
-5.497977	HOMOGENEOUS	-0.3010286
-5.196947	HOMOSEXUAL	-0.4322518
-4.719826	HONEST	-0.8432119
-5.497977	HONEY	-0.2924829
-4.594887	HONEYMOON	-1.008779
-4.066613	HONOR	-1.400423
-5.497977	HONORS	-0.2561605
-5.020855	HOODIES	-0.5995693
-4.799007	HOOEY	-0.8382753
-4.418796	HOOKAH	-1.069074
-4.083004	HOOKAHS	-1.479874
-5.497977	HOOLIGAN	-0.2561605
-5.020855	HOOVERED	-0.5721543
-3.781973	HOPE	-2.000628
-4.219223	HOPED	-2.123598
-5.020855	HOPEFUL	-0.593513
-5.020855	HOPEFULLY	-0.6002002
-5.020855	HOPELESSLY	-0.6020517
-4.293857	HOPING	-1.399911
-4.652879	HOPKINS	-1.087813
-5.020855	HOPPED	-0.6020559
-3.966498	HORIZON	-1.491786
-4.652879	HORIZONS	-1.085532
-5.020855	HORIZONTAL	-0.6020531
-5.497977	HORMONE	-0.3010258
-5.020855	HORRIFIED	-0.5571905
-4.799007	HORROR	-0.8811839
-3.489377	HORSE	-2.405208
-5.497977	HORSE'S	-0.300294
-4.066613	HORSEMAN	-1.630735
-4.050819	HORSEMEN	-1.857252
-3.906912	HORSES	-1.547648
-4.219223	HOSPITAL	-1.208531
-4.652879	HOSPITALITY	-1.04798
-5.497977	HOST	-0.2924829
-5.497977	HOSTAGES	-0.2561605
-5.196947	HOSTED	-0.476323
-5.497977	HOSTILE	-0.2561605
-3.515706	HOT	-4.079304
-4.497977	HOTEL	-0.9965231
-4.799007	HOTTER	-0.8826948
-3.622916	HOUR	-2.256021
-3.727125	HOURS	-2.368459
-3.285789	HOUSE	-2.436207
-3.548587	HOUSES	-2.09549
-2.659758	HOW	-3.804608
-4.456584	HOW'D	-1.072876
-3.885193	HOWEVER	-1.586163
-5.196947	HTML	-0.4743529
-4.895917	HTTP	-0.6989617
-3.558458	HUGE	-2.090682
-5.020855	HULL	-0.5486354
-4.594887	HUMAN	-1.059108
-4.799007	HUMANITARIAN	-0.8745978
-4.543734	HUMANITY	-0.999293
-5.497977	HUMANLY	-0.3009541
-4.321886	HUMANS	-1.15591
-4.799007	HUMBLE	-0.8382753
-5.497977	HUMIDITY	-0.2982616
-3.966498	HUMMING	-1.543842
-4.895917	HUNCHED	-0.6962128
-4.543734	HUNCHES	-0.9972427
-3.307645	HUNDRED	-2.287725
-3.489377	HUNDREDS	-2.004697
-4.418796	HUNGER	-1.066311
-4.384033	HUNGRY	-1.192514
-4.799007	HUNT	-0.7773807
-5.020855	HUNTER	-0.595956
-4.652879	HUNTING	-0.8983718
-3.929775	HURRICANES	-1.534914
-3.895917	HURRIED	-1.71664
-4.321886	HURRY	-1.292711
-3.992827	HURRYING	-1.516963
-4.100037	HURT	-1.910345
-4.594887	HURTING	-0.9519918
-3.918193	HUSBAND	-1.750258
-4.719826	HUSTLE	-1.286043
-4.652879	HYDROGEN	-1.09268
-5.196947	HYPERACTIVE	-0.4771185
-5.497977	HYPNOTIC	-0.3009251
-5.497977	HYPNOTIST	-0.2561605
-4.799007	HYPNOTIZED	-0.8823466
-1.777074	I	-3.582579
-3.280493	I'D	-2.2456
-3.089737	I'LL	-2.740596
-2.543734	I'M	-2.947845
-3.10528	I'VE	-2.573431
-3.979463	ICE	-1.636399
-4.719826	ICECREAM	-1.242788
-5.020855	ICON	-0.5901139
-4.719826	ICONIC	-1.287646
-4.895917	ID	-0.6541005
-5.497977	IDAHO	-0.3010286
-3.237906	IDEA	-2.637462
-5.497977	IDEAL	-0.3000783
-4.895917	IDEAS	-0.6536198
-5.020855	IDENTIFICATION	-0.6005092
-5.497977	IDENTIFIERS	-0.2561605
-5.497977	IDENTIFY	-0.3009969
-5.020855	IDENTITY	-0.5571905
-5.020855	IDEOLOGY	-0.5571905
-4.799007	IDIOT	-0.7332053
-2.659758	IF	-3.564449
-4.219223	IGNORE	-1.36224
-4.293857	IGNORED	-1.185561
-4.799007	II	-0.7686701
-4.219223	ILL	-1.292455
-4.799007	ILLEGAL	-0.7332756
-4.175757	ILLNESSES	-1.264264
-4.719826	ILLOGICAL	-0.9396605
-5.497977	ILLUSION	-0.2561605
-4.267528	IM	-1.358784
-4.020855	IMAGE	-2.314446
-3.885193	IMAGES	-1.577992
-5.497977	IMAGINATION	-0.2890839
-3.773701	IMAGINE	-1.720798
-4.418796	IMAGINED	-1.10738
-5.497977	IMAGINING	-0.3009182
-5.196947	IMGINATION	-0.4651752
-5.497977	IMMEDIATE	-0.3010231
-3.895917	IMMEDIATELY	-1.605604
-4.418796	IMMENSE	-1.556426
-4.020855	IMMENSELY	-1.491224
-3.895917	IMMENSITY	-1.605076
-4.497977	IMMERSE	-1.04136
-5.196947	IMMERSIVE	-0.4322518
-5.196947	IMMINENT	-0.4771185
-4.497977	IMMOBILE	-1.039838
-3.617163	IMPACT	-2.271857
-4.351849	IMPASSABLE	-1.131222
-3.734549	IMPATIENT	-1.704922
-5.497977	IMPEACHED	-0.2561605
-5.497977	IMPENETRABLE	-0.2561605
-4.719826	IMPERCEPTIBLY	-1.279111
-4.895917	IMPERIAL	-0.6904202
-4.652879	IMPETUS	-1.080903
-5.497977	IMPLEMENTATION	-0.2561605
-5.196947	IMPLIES	-0.4715221
-5.020855	IMPLODE	-0.5571905
-5.497977	IMPLY	-0.2937125
-4.196947	IMPORTANCE	-1.310273
-3.634654	IMPORTANT	-1.791962
-4.895917	IMPORTANT'S	-0.6988665
-4.242704	IMPOSSIBLE	-1.663178
-4.895917	IMPOUNDING	-0.6690643
-4.351849	IMPRESSED	-1.175293
-4.594887	IMPRESSION	-1.394444
-4.652879	IMPRISON	-1.091819
-4.219223	IMPROVE	-1.268918
-4.196947	IMPROVED	-1.262093
-5.497977	IMPROVEMENT	-0.2561605
-4.321886	IMPROVES	-1.174159
-4.895917	IMPROVING	-0.6690598
-5.497977	IMPROVISE	-0.2988971
-5.196947	IMPULSE	-0.4651752
-1.93819	IN	-3.785913
-5.196947	INANELY	-0.4651752
-3.992827	INANIMATE	-1.518428
-4.719826	INCANTATION	-1.281554
-3.992827	INCH	-1.517854
-4.719826	INCIDENT	-0.8001275
-3.929775	INCIDENTS	-1.534914
-5.196947	INCISION	-0.4710172
-4.895917	INCLUDE	-0.6899258
-4.799007	INCLUDES	-0.88271
-5.196947	INCLUDING	-0.4472155
-5.497977	INCLUSIVE	-0.2561605
-5.196947	INCOMPATIBLE	-0.4771185
-4.799007	INCOMPLETE	-0.8382753
-5.497977	INCOMPREHENSIBLY	-0.2561605
-4.035579	INCONVENIENCE	-1.432252
-5.020855	INCORPORATED	-0.6012811
-5.196947	INCREASE	-0.4767651
-4.497977	INCREASED	-1.478905
-5.497977	INCREASES	-0.2711242
-4.321886	INCREASING	-1.26271
-4.594887	INCREDIBLE	-0.9541625
-5.196947	INCREDIBLY	-0.4771185
-5.020855	INDECIPHERABLE	-0.5571905
-5.497977	INDEPENDENT	-0.3010148
-5.497977	INDEX	-0.3010217
-5.497977	INDIA	-0.2890839
-4.719826	INDICATING	-0.9356808
-4.895917	INDIFFERENT	-0.6987492
-4.895917	INDIGESTION	-0.6541005
-5.020855	INDIVIDUALLY	-0.5571905
-5.020855	INDUSTRIAL	-0.5571905
-5.196947	INDUSTRY	-0.4771185
-5.196947	INEXHAUSTIBLE	-0.4771033
-5.196947	INFERIORITY	-0.4771158
-4.497977	INFIDELS	-1.274949
-5.196947	INFILTRATED	-0.4472155
-5.196947	INFIRMARY	-0.4322518
-5.196947	INFLATABLE	-0.4771185
-5.196947	INFLUENCE	-0.4751603
-3.835219	INFORMATION	-1.669308
-4.895917	INFORMATIVE	-0.6541005
-5.497977	INFORMED	-0.2561605
-5.020855	INFRARED	-0.6020559
-4.719826	INFREQUENT	-1.28765
-5.020855	INFURIATES	-0.6000367
-4.799007	INFURIATING	-0.8532391
-5.497977	INGENIOUS	-0.3010272
-5.020855	INGREDIENTS	-0.5943522
-4.543734	INHABITANTS	-0.9551305
-5.497977	INHERENT	-0.3010286
-4.719826	INHERITANCE	-1.242788
-5.497977	INITIAL	-0.3010286
-5.497977	INITIATED	-0.3004943
-5.497977	INK	-0.3001433
-4.543734	INNUMERABLE	-0.9999876
-4.799007	INPUTS	-0.8382753
-4.456584	INSANE	-1.132004
-5.497977	INSERT	-0.2997753
-3.553494	INSIDE	-2.690699
-5.196947	INSIST	-0.4751603
-4.351849	INSISTED	-1.571606
-4.594887	INSISTENTLY	-0.9422964
-4.652879	INSPECT	-1.309415
-4.719826	INSPECTED	-1.257752
-5.497977	INSPIRED	-0.3002317
-4.895917	INSTALL	-0.6893507
-5.196947	INSTALLATION	-0.4241303
-5.497977	INSTANTLY	-0.3009306
-4.020855	INSTEAD	-1.403855
-4.543734	INSTRUCTIONS	-1.433172
-4.895917	INSTRUMENT	-0.6541005
-3.929775	INSTRUMENTS	-1.579733
-5.196947	INSULIN	-0.4771158
-4.418796	INSURANCE	-1.062166
-4.895917	INSURGENTS	-0.6989604
-5.020855	INTEGRATE	-0.6002002
-5.497977	INTEGRATING	-0.2951246
-5.196947	INTELLIGENCE	-0.4734758
-5.020855	INTELLIGENT	-0.6020559
-4.543734	INTENSE	-1.184146
-4.418796	INTENSITY	-1.236575
-4.050819	INTENTION	-1.45469
-4.895917	INTERACTIVE	-0.6989563
-5.196947	INTERCOURSE	-0.4322518
-4.719826	INTEREST	-0.7934549
-3.895917	INTERESTED	-1.717551
-4.594887	INTERESTING	-1.047252
-5.020855	INTERFACE	-0.595956
-5.196947	INTERFERE	-0.4322518
-5.196947	INTERFERING	-0.4322518
-5.196947	INTERIOR	-0.4766187
-5.497977	INTERNATIONAL	-0.3009679
-4.418796	INTERNET	-1.04639
-3.854524	INTERPRET	-2.055575
-4.543734	INTERPRETATION	-1.394619
-4.543734	INTERPRETATIONS	-0.9914529
-4.594887	INTERPRETED	-0.9541225
-5.497977	INTERRUPT	-0.2947244
-4.035579	INTERRUPTED	-1.840551
-4.196947	INTERVIEW	-1.506273
-4.652879	INTERVIEWS	-0.8558548
-2.746698	INTO	-2.671597
-5.497977	INTRIGUE	-0.2924829
-5.497977	INTRINSIC	-0.3010272
-5.497977	INTRO	-0.2561605
-5.196947	INTRODUCE	-0.4764101
-5.020855	INTRODUCES	-0.5933595
-5.020855	INTRUDERS	-0.5571905
-4.543734	INTUITION	-0.9938959
-4.719826	INVADE	-1.257752
-4.293857	INVADERS	-1.227954
-5.196947	INVALID	-0.4322518
-5.196947	INVARIANT	-0.4771185
-5.020855	INVASION	-0.5571905
-5.020855	INVENT	-0.57081
-3.906912	INVENTED	-1.601997
-5.497977	INVESTIGATING	-0.2959937
-4.006615	INVESTIGATIONS	-1.46028
-5.497977	INVESTING	-0.2959937
-5.497977	INVESTMENT	-0.3009279
-5.196947	INVINCIBLE	-0.4764281
-3.712647	INVISIBLE	-1.789896
-5.020855	INVITING	-0.5571905
-4.895917	INVOLVE	-0.6989645
-4.293857	INVOLVED	-1.62606
-5.020855	INWARDS	-0.5571905
-4.799007	IRISH	-0.8822083
-4.799007	IRON	-0.8811215
-3.966498	IRRESOLUTE	-1.541577
-5.020855	IRRESPONSIBLE	-0.5571905
-5.497977	IRRIGATION	-0.3009982
-4.719826	IRRITABLE	-1.279111
-3.835219	IRRITATED	-1.626173
-2.196947	IS	-3.073972
-3.749789	ISN'T	-1.702656
-5.020855	ISNT	-0.6002002
-4.543734	ISSUE	-0.9857559
-4.652879	ISSUES	-1.04798
-1.869486	IT	-3.781762
-4.799007	IT'D	-0.8811257
-4.219223	IT'LL	-1.487312
-2.690442	IT'S	-2.787672
-4.799007	ITALIAN	-0.7781416
-4.719826	ITALICS	-1.242788
-4.799007	ITCHY	-0.8382753
-4.719826	ITEM	-0.9047231
-4.594887	ITEMS	-0.9517518
-2.787014	ITS	-2.834654
-3.781973	ITSELF	-1.67228
-4.543734	IVE	-0.9996149
-5.196947	IVY	-0.4770757
-4.456584	JACK	-1.467304
-3.757614	JACKET	-2.128258
-4.895917	JACKIE	-0.6985407
-5.196947	JACKSON	-0.4710172
-4.895917	JADE'S	-0.6989631
-4.321886	JAIL	-1.15925
-5.020855	JAILBIRDS	-0.6018019
-4.799007	JAKE	-0.8806999
-4.799007	JAM	-0.7251603
-4.719826	JAMES	-0.8445182
-5.020855	JAMIE	-0.6015119
-5.196947	JAMS	-0.4322518
-4.799007	JANE	-0.733095
-4.719826	JANET	-1.287648
-5.020855	JANITOR	-0.5571905
-5.020855	JANUARY	-0.5504168
-4.799007	JAPAN	-0.7326525
-5.196947	JAPANESE	-0.4771158
-5.497977	JAR	-0.3010286
-5.196947	JARED'S	-0.4768963
-5.196947	JASON	-0.4743529
-5.020855	JAVA	-0.5992917
-5.020855	JAVASCRIPT	-0.5571905
-5.497977	JAZZ	-0.3010286
-5.497977	JEALOUS	-0.2933222
-4.418796	JEALOUSY	-1.069074
-5.196947	JEAN	-0.4769405
-4.895917	JEANS	-0.6955624
-4.895917	JEFFERSON	-0.6989645
-4.799007	JELLY	-0.8830262
-4.895917	JENA	-0.6989645
-4.351849	JENNIFER	-1.371728
-5.497977	JENNIFER'S	-0.3010148
-3.992827	JERK	-1.518397
-4.799007	JESSIE	-0.8831131
-5.497977	JESTING	-0.2561605
-4.719826	JET	-0.8002102
-4.594887	JETTED	-0.9537193
-3.966498	JETTING	-1.542711
-4.456584	JEWELS	-1.034312
-5.196947	JEZEBEL	-0.4322518
-4.497977	JILL	-1.285056
-4.895917	JILLIAN	-0.6981911
-4.719826	JIM	-0.8450029
-5.196947	JITTERBUGS	-0.4770937
-5.196947	JOANNA	-0.4322518
-5.020855	JOANNE	-0.6019993
-3.757614	JOB	-1.789161
-4.543734	JOBS	-0.9998882
-5.020855	JOCKS	-0.6019731
-4.799007	JOE	-0.8830648
-4.799007	JOEL	-0.8803765
-4.196947	JOHN	-1.503043
-4.799007	JOHNATHAN	-0.8831379
-4.719826	JOHNNY	-1.242788
-4.652879	JOHNS	-1.09284
-4.719826	JOHNSON	-1.242788
-4.196947	JOIN	-1.525064
-4.719826	JOINED	-0.9191929
-4.895917	JOINT	-0.6989424
-5.196947	JOKE	-0.4241303
-4.895917	JOKE'S	-0.6970091
-4.895917	JON	-0.6989506
-4.652879	JOSEPH	-1.04798
-4.719826	JOSHUA	-0.8002025
-4.719826	JOURNAL	-1.280848
-5.497977	JOURNALISM	-0.2561605
-3.895917	JOURNEY	-1.554898
-4.895917	JOURNEYS	-0.6989645
-4.050819	JOY	-1.409971
-5.020855	JOYPAD	-0.595956
-4.155554	JUDGE	-1.419937
-4.418796	JUG	-1.069074
-5.196947	JUGGERNAUT	-0.4322518
-5.020855	JUICE	-0.5945501
-4.594887	JULIA'S	-0.909373
-4.196947	JUMP	-1.247248
-4.384033	JUMPED	-1.244712
-4.799007	JUMPER	-0.8803765
-4.799007	JUMPING	-0.7652525
-4.895917	JUNE	-0.6987671
-5.196947	JUNGLE	-0.476164
-4.100037	JUNIOR	-1.414939
-5.497977	JUPITER	-0.3004625
-2.711225	JUST	-2.750297
-5.020855	JUSTICE	-0.6014
-4.799007	JUSTIFICATION	-0.7756078
-5.497977	JUSTIFY	-0.2711242
-5.020855	KANGAROO	-0.6020559
-5.497977	KANGAROOS	-0.2990067
-5.020855	KATE	-0.6020559
-5.020855	KATHERINE	-0.5999272
-4.799007	KATHY'S	-0.8811839
-4.799007	KATIE	-0.7767776
-3.515706	KEEP	-2.116235
-4.242704	KEEPING	-1.689494
-4.035579	KEEPS	-1.865056
-5.020855	KEITH	-0.6020559
-5.196947	KELLER	-0.4322518
-4.497977	KELLY	-1.03339
-5.196947	KELSEY	-0.4771144
-5.020855	KEN	-0.6012949
-5.196947	KENNETH	-0.4771185
-5.196947	KENNY	-0.4771075
-3.895917	KEPT	-2.40203
-5.020855	KERNEL	-0.6011249
-5.196947	KERNELS	-0.4694135
-5.020855	KETTLE	-0.5992917
-5.497977	KETTLEBELLS	-0.3003368
-4.799007	KEVIN	-0.7332757
-5.196947	KEVLAR	-0.4715221
-4.267528	KEY	-2.072903
-4.497977	KEYBOARD	-1.474834
-4.895917	KEYCHAIN	-0.6962017
-5.497977	KEYPRESSES	-0.2561605
-4.799007	KEYRING	-0.8830883
-4.543734	KEYS	-1.144282
-5.497977	KEYWORD	-0.3003699
-4.895917	KICK	-0.6925609
-3.781973	KID	-1.781266
-4.719826	KIDNAP	-1.285635
-4.799007	KIDNAPPED	-0.8382753
-4.799007	KIDNAPPING	-0.7319026
-3.835219	KIDS	-1.71538
-4.083004	KILL	-1.603697
-4.066613	KILLED	-1.80155
-5.497977	KILLERS	-0.2561605
-4.799007	KIM	-0.8830662
-5.196947	KIMBERLY'S	-0.4771144
-3.671902	KIND	-1.8744
-5.020855	KINDA	-0.6020517
-4.799007	KINDLY	-0.8830924
-3.906912	KINDNESS	-1.55719
-5.196947	KINDS	-0.4694135
-3.397606	KING	-2.08334
-5.196947	KING'S	-0.4771171
-4.196947	KINGS	-1.502759
-4.384033	KISS	-1.384378
-5.196947	KISSING	-0.472085
-4.267528	KITCHEN	-1.310253
-3.953909	KITE	-1.553812
-5.196947	KITTENS	-0.4322518
-5.497977	KITTY	-0.2982616
-5.020855	KNAPSACK	-0.5933623
-5.497977	KNEE	-0.2561605
-4.652879	KNEEL	-1.084302
-4.175757	KNEES	-1.475262
-4.895917	KNELT	-0.6984606
-3.10528	KNEW	-2.490119
-4.895917	KNIFE	-0.690423
-5.196947	KNIGHTS	-0.4737916
-4.895917	KNITTED	-0.6989645
-5.497977	KNITTING	-0.3003202
-5.497977	KNOB	-0.2933222
-5.020855	KNOCK	-0.6014
-4.594887	KNOCKED	-1.05722
-2.534189	KNOW	-3.559773
-5.196947	KNOWING	-0.4715221
-4.497977	KNOWLEDGE	-1.030305
-3.885193	KNOWN	-2.100463
-3.468593	KNOWS	-2.120462
-4.719826	KORAN	-1.279111
-5.497977	KOREAN	-0.3010286
-4.799007	KRISTEN	-0.8825774
-5.497977	KURT	-0.3010286
-4.652879	KYLE'S	-1.092716
-4.895917	KYOTO	-0.6988996
-5.020855	L	-0.6020476
-5.020855	LABELS	-0.5571858
-4.895917	LABOR	-0.6989314
-4.384033	LABORATORIES	-3.295162
-4.543734	LABORATORY	-0.9999876
-5.497977	LABYRINTH	-0.2561605
-4.895917	LACE	-0.6536612
-4.895917	LACKS	-0.6989604
-4.799007	LADDER	-0.7698911
-4.594887	LADEN	-0.9517976
-4.543734	LADY	-1.393139
-5.020855	LAG	-0.5571905
-4.895917	LAID	-0.6970978
-4.543734	LAKE	-1.144772
-4.456584	LAKES	-1.034312
-4.895917	LAMB	-0.6541005
-4.719826	LAME	-1.242788
-4.719826	LAMP	-0.8366931
-4.006615	LAND	-1.52844
-5.497977	LANDED	-0.301019
-4.799007	LANDING	-0.8811839
-5.196947	LANDMARKS	-0.4743529
-5.196947	LANE	-0.4710172
-5.196947	LANES	-0.4757434
-3.433519	LANGUAGE	-2.486414
-3.941674	LANGUAGES	-1.534736
-3.992827	LANTERN	-1.509912
-4.497977	LAPTOP	-1.145725
-3.394173	LARGE	-2.200825
-4.799007	LARGELY	-0.7781444
-3.906912	LARGER	-1.593054
-5.020855	LARISSA'S	-0.6019924
-5.020855	LARRY'S	-0.6020545
-5.497977	LASER	-0.3010286
-3.634654	LAST	-2.65205
-4.117765	LASTED	-1.397654
-5.497977	LASTFM	-0.2561605
-5.196947	LASTING	-0.4771116
-5.497977	LATASHA	-0.2924829
-4.020855	LATE	-1.878876
-4.719826	LATELY	-1.242788
-5.020855	LATENCY	-0.544564
-3.966498	LATER	-2.112826
-4.799007	LATEST	-0.7780988
-4.351849	LATIN	-1.175963
-5.020855	LATTER	-0.5571905
-4.418796	LAUGH	-1.10984
-3.698636	LAUGHED	-2.284337
-4.652879	LAUGHING	-1.004569
-5.020855	LAUNCH	-0.5571905
-5.196947	LAUNDRY	-0.429181
-4.895917	LAURA	-0.6986567
-5.020855	LAURENCE	-0.5992917
-4.799007	LAVENDER	-0.7695999
-4.895917	LAVISH	-0.6989645
-4.293857	LAW	-1.405768
-5.020855	LAWSUITS	-0.5571905
-5.196947	LAWYER	-0.4322518
-5.020855	LAWYERS	-0.5970237
-3.864508	LAY	-1.637055
-5.196947	LAYERS	-0.4322518
-5.497977	LAYING	-0.3005205
-4.799007	LAYS	-0.8822415
-5.196947	LAZY	-0.4322518
-4.035579	LEAD	-1.671427
-4.050819	LEADER	-1.453714
-5.196947	LEADERS	-0.4322518
-3.816736	LEADING	-1.689283
-5.020855	LEADS	-0.5901139
-4.497977	LEAFED	-1.04089
-5.196947	LEAGUES	-0.4771033
-4.719826	LEAKING	-0.8437383
-4.219223	LEAPT	-1.254436
-3.543734	LEARN	-1.876488
-3.605882	LEARNED	-1.89816
-4.895917	LEARNER	-0.6912622
-4.035579	LEARNING	-3.576058
-4.719826	LEARNS	-1.280848
-4.196947	LEAST	-1.378497
-5.497977	LEATHER	-0.3010286
-3.534189	LEAVE	-2.940734
-5.196947	LEAVES	-0.4684236
-3.906912	LEAVING	-1.74501
-5.196947	LECTURE	-0.4771185
-4.543734	LED	-1.159851
-5.196947	LEDGE	-0.4322518
-4.799007	LEE	-0.8827666
-3.171641	LEFT	-2.388274
-4.895917	LEG	-0.6974192
-5.196947	LEG'S	-0.4762415
-5.497977	LEGENDARY	-0.3009748
-5.497977	LEGENDS	-0.2933222
-5.196947	LEGITIMATE	-0.4322518
-4.066613	LEGS	-1.392552
-5.020855	LEMME	-0.6000367
-5.497977	LEMON	-0.3008947
-5.020855	LEMONGRASS	-0.6016266
-5.020855	LENDING	-0.6016349
-4.652879	LENGTH	-1.04798
-5.196947	LENS	-0.4710172
-3.524849	LESS	-1.922412
-5.020855	LESSON	-0.5571905
-4.652879	LESSONS	-1.3079
-3.161517	LET	-2.382387
-3.493655	LET'S	-3.051256
-5.497977	LETHAL	-0.2561605
-3.885193	LETTER	-1.983782
-4.895917	LETTER'S	-0.6986305
-5.497977	LETTERS	-0.3010245
-4.799007	LETTING	-0.7755967
-4.136249	LEVANTER	-3.501377
-4.006615	LEVEL	-1.457048
-5.196947	LEVELS	-0.4752463
-4.895917	LIABLE	-0.6870239
-5.497977	LIBERAL	-0.3010134
-5.497977	LIBRARIES	-0.2996729
-4.799007	LIBRARY	-0.730211
-5.497977	LICE	-0.2561605
-4.799007	LICENSE	-0.7332726
-5.497977	LICK	-0.2954308
-4.799007	LICORICE	-0.8803765
-5.497977	LID	-0.2949259
-5.497977	LIDIA	-0.3010286
-4.066613	LIE	-2.193655
-4.543734	LIED	-1.092179
-4.543734	LIES	-0.9526587
-3.145794	LIFE	-3.331568
-4.719826	LIFE'S	-1.287593
-5.497977	LIFEGUARDS	-0.299155
-4.719826	LIFETIME	-1.242788
-4.895917	LIFT	-0.6928645
-4.895917	LIFTED	-0.6685273
-3.538935	LIGHT	-2.730776
-5.196947	LIGHTBULBS	-0.4767472
-4.719826	LIGHTED	-1.257752
-5.497977	LIGHTENING	-0.3010162
-4.799007	LIGHTHOUSES	-0.8781086
-4.497977	LIGHTING	-1.040635
-3.524849	LIGHTS	-1.925159
-5.497977	LIGHTYEAR	-0.2982616
