
\data\
ngram 1=173
ngram 2=289

\1-grams:
-0.7888443	</s>
-99	<s>	-0.4177598
-2.546674	<unk>
-2.462987	A	-0.05261233
-2.462987	AIR	-0.05261233
-2.462987	ALARM	-0.05261234
-2.462987	ALEXA	-0.05261234
-2.462987	AM	-0.05261233
-2.462987	AMAZON	-0.05261234
-2.160911	AND	-0.05261233
-2.462987	ANECHOIC	-0.05261233
-2.462987	AT	-0.05261233
-2.462987	BANGALORE	-0.05261234
-2.462987	BEFORE	-0.05261234
-2.462987	BIEBER	-0.05261234
-2.462987	BLACK	-0.05261234
-2.462987	BLAKE	-0.05261233
-2.462987	BLUE	-0.05261233
-2.462987	BOWIE	-0.05261234
-1.506887	BY	-0.05261233
-2.462987	CALENDAR	-0.05261234
-2.462987	CALIBRATE	-0.05261233
-2.462987	CALL	-0.05261233
-2.462987	CAME	-0.05261233
-2.462987	CAMERAS	-0.05261234
-2.462987	CARIBBEAN	-0.05261234
-2.462987	CHAMBER	-0.05261234
-2.462987	CHRIS	-0.05261233
-2.462987	CONDITIONING	-0.05261234
-2.462987	DAFT	-0.05261233
-2.462987	DAVID	-0.05261233
-2.462987	DINING	-0.05261234
-2.462987	DO	-0.05261234
-2.462987	DOOR	-0.05261233
-2.160911	DOWN	-0.3536423
-2.462987	DRAKE	-0.05261234
-2.462987	DRIVE	-0.05261233
-2.462987	EIGHT	-0.05261233
-2.462987	EPISODE	-0.05261233
-2.462987	ESPN	-0.05261234
-2.462987	FALL	-0.05261233
-2.462987	FIRST	-0.05261233
-2.462987	FIVE	-0.05261234
-2.462987	FLOOR	-0.05261233
-2.462987	FOLLOWING	-0.05261233
-1.762345	FOR	-0.05261234
-2.462987	FORGET	-0.05261234
-2.160911	FROM	-0.05261233
-2.462987	FRONT	-0.05261233
-2.462987	GARAGE	-0.05261233
-2.462987	GENIE	-0.05261234
-2.462987	GET	-0.05261233
-2.462987	GOING	-0.05261233
-1.984472	GOOGLE	-0.2287036
-2.462987	HELLO	-0.05261233
-2.462987	HERE	-0.05261233
-2.462987	HEY	-0.05261234
-2.462987	HI	-0.05261233
-2.462987	HOME	-0.05261234
-2.462987	HOURS	-0.05261234
-2.462987	HOW	-0.05261233
-1.762345	I	-0.1495224
-1.984472	IN	-0.05261234
-2.462987	INTENDED	-0.05261233
-1.762345	IS	-0.1495224
-1.984472	IT	-0.05261235
-2.462987	ITUNES	-0.05261234
-2.462987	JUSTIN	-0.05261233
-2.462987	KIDS	-0.05261234
-2.462987	LAMP	-0.05261234
-2.462987	LEAVE	-0.05261233
-2.462987	LIGHT	-0.05261233
-2.462987	LIGHTS	-0.05261234
-2.462987	LIKE	-0.05261234
-2.160911	LIVING	-0.5297336
-2.462987	LOGI	-0.05261234
-2.462987	LOGITECH	-0.05261234
-2.462987	LOGITECH'S	-0.05261233
-2.462987	LONG	-0.05261233
-2.462987	LOVE	-0.05261233
-2.462987	LUCKY	-0.05261234
-2.462987	MAKE	-0.05261233
-2.462987	MARS	-0.05261234
-2.160911	ME	-0.05261233
-2.462987	MEETING	-0.05261234
-2.462987	MINUTES	-0.05261234
-2.462987	MOM	-0.05261233
-2.160911	MUSIC	-0.3536423
-2.462987	MUTE	-0.05261234
-1.984472	MY	-0.05261234
-2.160911	NAME	-0.05261233
-2.462987	NEED	-0.05261233
-2.462987	NEW	-0.05261233
-2.462987	NEXT	-0.05261233
-2.160911	NOW	-0.05261233
-2.462987	NPR	-0.05261234
-2.462987	ODB	-0.05261234
-1.859359	OF	-0.1775511
-2.462987	OK	-0.05261233
-1.762345	ON	-0.2075143
-2.462987	ONE	-0.05261233
-2.462987	ONLY	-0.05261233
-2.462987	OPEN	-0.05261234
-2.462987	ORANGE	-0.05261234
-2.462987	OUT	-0.05261234
-2.462987	PANDORA	-0.05261234
-2.462987	PART	-0.05261233
-2.462987	PAUSE	-0.05261234
-2.462987	PHRASES	-0.05261234
-2.462987	PICK	-0.05261234
-2.462987	PILOTS	-0.05261234
-2.462987	PIRATES	-0.05261233
-2.462987	PLATTEN	-0.05261234
-2.462987	PLAY	-0.05261233
-2.462987	PM	-0.05261233
-2.462987	PUNK	-0.05261234
-2.462987	RACHEL	-0.05261233
-2.462987	RECOGNITION	-0.05261233
-2.462987	RECORDING	-0.05261234
-2.462987	RED	-0.05261234
-2.462987	REMINDER	-0.05261234
-2.462987	REWIND	-0.05261234
-2.462987	RIGHT	-0.05261234
-2.462987	RISE	-0.05261234
-2.160911	ROOM	-0.05261234
-2.462987	SAY	-0.05261233
-2.462987	SCRIPT	-0.05261234
-2.462987	SEARCH	-0.05261234
-2.462987	SECONDS	-0.05261234
-2.462987	SET	-0.1775511
-2.462987	SHELTON	-0.05261234
-2.462987	SIRI	-0.05261234
-2.462987	SIXTEEN	-0.05261234
-2.462987	SOMETHING	-0.05261234
-2.462987	SONOS	-0.05261234
-2.462987	SOUNDCLOUD	-0.05261234
-2.462987	SPIDERS	-0.05261234
-2.462987	SPOTIFY	-0.05261234
-2.462987	STAND	-0.05261234
-2.462987	STAPELTON	-0.05261234
-2.462987	STARDUST	-0.05261234
-2.462987	START	-0.05261234
-2.462987	STATE	-0.05261233
-2.462987	STOP	-0.05261234
-2.462987	STRESSED	-0.05261233
-2.462987	SUMMER	-0.05261233
-2.462987	TAKE	-0.05261234
-2.160911	TEN	-0.05261233
-2.462987	TESTING	-0.05261234
-1.419695	THE	-0.08257556
-2.160911	THIS	-0.05261233
-2.462987	TIME	-0.05261233
-2.462987	TIMER	-0.05261234
-1.419695	TO	-0.09400501
-2.160911	TODAY	-0.3536423
-2.462987	TRAVELER	-0.05261234
-2.462987	TURN	-0.2744611
-2.462987	TWENTY	-0.05261233
-2.462987	TWO	-0.05261233
-2.160911	UP	-0.05261234
-1.984472	VOICE	-0.2287036
-2.160911	VOLUME	-0.05261234
-2.462987	WANT	-0.05261233
-2.160911	WATCH	-0.05261233
-2.462987	WEATHER	-0.05261233
-2.462987	WHAT	-0.3536424
-2.462987	WHAT'S	-0.05261233
-2.462987	WILL	-0.05261233
-2.462987	WORK	-0.05261234
-2.462987	YOU	-0.05261234
-2.462987	YOUR	-0.05261234
-2.462987	YOURSELF	-0.05261234
-2.462987	ZIGGY	-0.05261233

\2-grams:
-2.449389	<s> CALL
-2.449389	<s> HELLO
-1.086268	<s> HEY
-2.449389	<s> HI
-2.449389	<s> HOW
-2.053426	<s> I
-1.588285	<s> IN
-2.053426	<s> IS
-2.449389	<s> MUTE
-2.449389	<s> OK
-1.169629	<s> ON
-2.449389	<s> PAUSE
-0.6590814	<s> PLAY
-2.449389	<s> REWIND
-2.449389	<s> SEARCH
-1.204978	<s> SET
-2.449389	<s> STOP
-1.086268	<s> TURN
-1.61113	<s> VOLUME
-2.311984	<s> WATCH
-1.635243	<s> WHAT
-1.635243	<s> WHAT'S
-1.221142	A REMINDER
-1.221142	A TIMER
-0.9312775	AIR CONDITIONING
-0.8880444	ALARM FOR
-0.5881212	ALEXA </s>
-1.199537	AM NOW
-1.221142	AM RECORDING
-0.9200591	AMAZON MUSIC
-1.221142	AND FALL
-1.042144	AND THE
-0.9312775	ANECHOIC CHAMBER
-0.9312775	AT HOME
-0.5881212	BANGALORE </s>
-0.8880444	BEFORE I
-0.5881212	BIEBER </s>
-0.5881212	BLACK </s>
-0.9312775	BLAKE SHELTON
-0.9312775	BLUE GENIE
-0.5881212	BOWIE </s>
-1.803332	BY BLAKE
-1.803332	BY CHRIS
-1.803332	BY DAFT
-1.803332	BY DRAKE
-1.803332	BY JUSTIN
-1.803332	BY ODB
-1.803332	BY RACHEL
-1.803332	BY TWENTY
-1.803332	BY YOU
-0.9200591	CALENDAR TODAY
-0.8303289	CALIBRATE THE
-0.9312775	CALL MOM
-0.9312775	CAME HERE
-0.8880444	CAMERAS ON
-0.5881212	CARIBBEAN </s>
-0.8880444	CHAMBER FOR
-0.9312775	CHRIS STAPELTON
-0.9200591	CONDITIONING DOWN
-0.9312775	DAFT PUNK
-0.9312775	DAVID BOWIE
-0.9200591	DINING ROOM
-0.8880444	DO I
-0.9312775	DOOR OPEN
-0.2012962	DOWN </s>
-0.5881212	DRAKE </s>
-0.8303289	DRIVE TO
-0.9312775	EIGHT HOURS
-0.898456	EPISODE OF
-0.5881212	ESPN </s>
-0.898456	FALL OF
-0.9312775	FIRST MEETING
-0.5881212	FIVE </s>
-0.9312775	FLOOR LAMP
-0.9312775	FOLLOWING PHRASES
-1.587212	FOR EIGHT
-1.587212	FOR PIRATES
-1.538578	FOR TEN
-1.587212	FOR TWO
-1.494846	FOR VOICE
-0.8487282	FORGET BY
-1.221142	FROM MARS
-1.199537	FROM NOW
-0.9312775	FRONT RIGHT
-0.9312775	GARAGE DOOR
-0.5881212	GENIE </s>
-0.9312775	GET LUCKY
-0.8303289	GOING TO
-0.330307	GOOGLE </s>
-1.375628	GOOGLE MUSIC
-0.9312775	HELLO BLUE
-0.8303289	HERE TO
-1.587212	HEY ALEXA
-1.494846	HEY GOOGLE
-1.587212	HEY LOGI
-1.587212	HEY LOGITECH
-1.587212	HEY SIRI
-0.9091232	HI MY
-0.5881212	HOME </s>
-0.9200591	HOURS FROM
-0.9312775	HOW LONG
-0.6473172	I AM
-1.597578	I NEED
-1.597578	I START
-1.597578	I WANT
-1.500668	IN BANGALORE
-1.423601	IN GOOGLE
-1.500668	IN ITUNES
-1.500668	IN LOGITECH'S
-0.8303289	INTENDED TO
-1.520511	IS IT
-1.597578	IS ONLY
-1.597578	IS STATE
-0.6024376	IS THE
-1.32594	IT IN
-1.386348	IT TAKE
-1.144261	IT TO
-0.5881212	ITUNES </s>
-0.9312775	JUSTIN BIEBER
-0.5881212	KIDS </s>
-0.5881212	LAMP </s>
-0.8303289	LEAVE TO
-0.8303289	LIGHT TO
-0.5881212	LIGHTS </s>
-0.9200591	LIKE TODAY
-0.1507424	LIVING ROOM
-0.5881212	LOGI </s>
-0.5881212	LOGITECH </s>
-0.9312775	LOGITECH'S ANECHOIC
-0.9312775	LONG WILL
-0.9312775	LOVE YOURSELF
-0.8487282	LUCKY BY
-0.9091232	MAKE IT
-0.5881212	MARS </s>
-1.221142	ME SOMETHING
-1.042144	ME TO
-0.5881212	MEETING </s>
-0.5881212	MINUTES </s>
-0.9312775	MOM AT
-0.2012962	MUSIC </s>
-0.5881212	MUTE </s>
-1.587212	MY CALENDAR
-1.587212	MY DINING
-1.587212	MY FIRST
-1.538578	MY NAME
-1.494846	MY VOICE
-1.140505	NAME I
-1.140505	NAME IS
-0.8303289	NEED TO
-0.9312775	NEW BLACK
-0.9312775	NEXT EPISODE
-0.6965729	NOW </s>
-1.221142	NOW GOING
-0.8880444	NPR ON
-0.5881212	ODB </s>
-1.511287	OF ORANGE
-0.5174091	OF THE
-1.511287	OF ZIGGY
-0.9091232	OK GOOGLE
-0.9498084	ON </s>
-1.868225	ON AMAZON
-0.9287202	ON MY
-1.868225	ON PANDORA
-1.868225	ON SOUNDCLOUD
-1.868225	ON SPOTIFY
-0.6289269	ON THE
-0.9312775	ONE PILOTS
-0.9312775	ONLY INTENDED
-0.5881212	OPEN </s>
-0.8880444	ORANGE IS
-0.8487282	OUT BY
-0.5881212	PANDORA </s>
-0.898456	PART OF
-0.5881212	PAUSE </s>
-0.5881212	PHRASES </s>
-0.9200591	PICK UP
-0.5881212	PILOTS </s>
-0.898456	PIRATES OF
-0.5881212	PLATTEN </s>
-0.8136998	PLAY </s>
-1.901061	PLAY CAME
-1.901061	PLAY DAVID
-1.901061	PLAY GET
-1.901061	PLAY LOVE
-1.806209	PLAY ME
-1.901061	PLAY NPR
-1.901061	PLAY STAND
-1.901061	PLAY STRESSED
-1.901061	PLAY SUMMER
-1.364388	PLAY THE
-1.901061	PLAY TRAVELER
-0.9312775	PM PICK
-0.5881212	PUNK </s>
-0.9312775	RACHEL PLATTEN
-1.221142	RECOGNITION TESTING
-1.042144	RECOGNITION TO
-0.9200591	RECORDING THIS
-0.5881212	RED </s>
-0.8880444	REMINDER FOR
-0.9200591	REWIND TEN
-0.9200591	RIGHT LIVING
-0.9200591	RISE AND
-1.500668	ROOM FLOOR
-1.500668	ROOM LIGHT
-1.500668	ROOM LIGHTS
-1.500668	ROOM SONOS
-0.8303289	SAY THE
-0.8880444	SCRIPT IS
-0.8880444	SEARCH FOR
-0.5881212	SECONDS </s>
-0.5515851	SET A
-1.511287	SET ALARM
-1.480033	SET VOLUME
-0.5881212	SHELTON </s>
-0.5881212	SIRI </s>
-0.8487282	SIXTEEN BY
-0.8487282	SOMETHING BY
-0.5881212	SONOS </s>
-0.5881212	SOUNDCLOUD </s>
-0.9200591	SPIDERS FROM
-0.5881212	SPOTIFY </s>
-0.8487282	STAND BY
-0.5881212	STAPELTON </s>
-0.9200591	STARDUST AND
-0.8880444	START I
-0.9312775	STATE YOUR
-0.5881212	STOP </s>
-0.9312775	STRESSED OUT
-0.9312775	SUMMER SIXTEEN
-0.9200591	TAKE ME
-1.221142	TEN MINUTES
-1.221142	TEN SECONDS
-0.9200591	TESTING THIS
-1.980735	THE AIR
-1.980735	THE CARIBBEAN
-1.980735	THE FOLLOWING
-1.980735	THE FRONT
-1.980735	THE GARAGE
-1.980735	THE KIDS
-1.097011	THE LIVING
-1.980735	THE NEW
-1.980735	THE NEXT
-1.980735	THE RISE
-1.980735	THE SCRIPT
-1.980735	THE SPIDERS
-1.791137	THE VOICE
-1.980735	THE WEATHER
-1.178955	THIS IN
-1.221142	THIS PART
-1.221142	TIME DO
-1.140505	TIME IS
-0.8880444	TIMER FOR
-1.881221	TO CALIBRATE
-1.881221	TO DRIVE
-1.881221	TO FORGET
-1.881221	TO LEAVE
-1.881221	TO MAKE
-0.960078	TO MY
-1.881221	TO RED
-1.881221	TO SAY
-1.797722	TO WATCH
-1.881221	TO WORK
-0.2012962	TODAY </s>
-0.8487282	TRAVELER BY
-1.608197	TURN CAMERAS
-0.36451	TURN ON
-1.36611	TURN THE
-0.9312775	TWENTY ONE
-0.9312775	TWO PM
-0.6965729	UP </s>
-1.042144	UP THE
-1.397233	VOICE BEFORE
-0.4278275	VOICE RECOGNITION
-1.355094	VOLUME DOWN
-1.386348	VOLUME FIVE
-1.355094	VOLUME UP
-0.8303289	WANT TO
-1.221142	WATCH ESPN
-1.042144	WATCH THE
-0.9312775	WEATHER LIKE
-0.2529206	WHAT TIME
-1.140505	WHAT'S ON
-1.042144	WHAT'S THE
-0.9091232	WILL IT
-0.5881212	WORK </s>
-0.8487282	YOU BY
-0.9200591	YOUR NAME
-0.8487282	YOURSELF BY
-0.9312775	ZIGGY STARDUST

\end\
