
\data\
ngram 1=172
ngram 2=289
ngram 3=6

\1-grams:
-0.8200597	</s>
-99	<s>	-0.3555717
-2.2266	A	-0.04052078
-2.52763	AIR	-0.04181526
-2.52763	ALARM	-0.03661407
-2.52763	ALEXA	0.02815799
-2.2266	AM	-0.03922245
-2.52763	AMAZON	-0.04052079
-2.2266	AND	-0.02198101
-2.52763	ANECHOIC	-0.04181526
-2.52763	AT	-0.04181526
-2.52763	BANGALORE	0.02815799
-2.52763	BEFORE	-0.03661407
-2.52763	BIEBER	0.02815799
-2.52763	BLACK	0.02815799
-2.52763	BLAKE	-0.04181526
-2.52763	BLUE	-0.04181526
-2.52763	BOWIE	0.02815799
-1.573387	BY	-0.03134982
-2.52763	CALENDAR	-0.04052079
-2.52763	CALIBRATE	-0.02333186
-2.52763	CALL	-0.04181526
-2.52763	CAME	-0.04181526
-2.52763	CAMERAS	-0.03002374
-2.52763	CARIBBEAN	0.02815799
-2.52763	CHAMBER	-0.03661407
-2.52763	CHRIS	-0.04181526
-2.52763	CONDITIONING	-0.04052079
-2.52763	DAFT	-0.04181526
-2.52763	DAVID	-0.04181526
-2.52763	DINING	-0.03792022
-2.52763	DO	-0.03661407
-2.52763	DOOR	-0.04181526
-2.2266	DOWN	-0.04550482
-2.52763	DRAKE	0.02815799
-2.52763	DRIVE	-0.02869358
-2.52763	EIGHT	-0.04181526
-2.52763	EPISODE	-0.03792022
-2.52763	ESPN	0.02815799
-2.52763	FALL	-0.03792022
-2.52763	FIRST	-0.04181526
-2.52763	FIVE	0.02815799
-2.52763	FLOOR	-0.04181526
-2.52763	FOLLOWING	-0.04181526
-1.82866	FOR	-0.03267188
-2.52763	FORGET	-0.03134983
-2.2266	FROM	-0.03922245
-2.52763	FRONT	-0.04181526
-2.52763	GARAGE	-0.04181526
-2.52763	GENIE	0.02815799
-2.52763	GET	-0.04181526
-2.52763	GOING	-0.02869358
-2.050509	GOOGLE	-0.01648962
-2.52763	HELLO	-0.04181526
-2.52763	HERE	-0.02869358
-1.82866	HEY	-0.03398992
-2.52763	HI	-0.03661407
-2.52763	HOME	0.02815799
-2.52763	HOURS	-0.04052079
-2.52763	HOW	-0.04181526
-1.82866	I	-0.06459835
-1.92557	IN	-0.03530397
-2.52763	INTENDED	-0.02869358
-1.82866	IS	-0.04451953
-2.050509	IT	-0.02198102
-2.52763	ITUNES	0.02815799
-2.52763	JUSTIN	-0.04181526
-2.52763	KIDS	0.02815799
-2.52763	LAMP	0.02815799
-2.52763	LEAVE	-0.02869358
-2.52763	LIGHT	-0.02869358
-2.52763	LIGHTS	0.02815799
-2.52763	LIKE	-0.04052079
-2.050509	LIVING	-0.9322866
-2.52763	LOGI	0.02815799
-2.52763	LOGITECH	0.02815799
-2.52763	LOGITECH'S	-0.04181526
-2.52763	LONG	-0.04181526
-2.52763	LOVE	-0.04181526
-2.52763	LUCKY	-0.03134983
-2.52763	MAKE	-0.03922245
-2.52763	MARS	0.02815799
-2.2266	ME	-0.02735934
-2.52763	MEETING	0.02815799
-2.52763	MINUTES	0.02815799
-2.52763	MOM	-0.04181526
-2.2266	MUSIC	-0.04550482
-2.52763	MUTE	0.02815799
-1.82866	MY	-0.03267188
-2.2266	NAME	-0.03002373
-2.52763	NEED	-0.02869358
-2.52763	NEW	-0.04181526
-2.52763	NEXT	-0.04181526
-2.2266	NOW	0.02967916
-2.52763	NPR	-0.03002374
-2.52763	ODB	0.02815799
-1.92557	OF	-0.05589744
-2.52763	OK	-0.03922245
-1.52763	ON	-0.08432172
-2.52763	ONE	-0.04181526
-2.52763	ONLY	-0.04181526
-2.52763	OPEN	0.02815799
-2.52763	ORANGE	-0.03661407
-2.52763	OUT	-0.03134983
-2.52763	PANDORA	0.02815799
-2.52763	PART	-0.03792022
-2.52763	PAUSE	0.02815799
-2.52763	PHRASES	0.02815799
-2.52763	PICK	-0.04052079
-2.52763	PILOTS	0.02815799
-2.52763	PIRATES	-0.03792022
-2.52763	PLATTEN	0.02815799
-1.448449	PLAY	0.06955066
-2.52763	PM	-0.04181526
-2.52763	PUNK	0.02815799
-2.52763	RACHEL	-0.04181526
-2.2266	RECOGNITION	-0.02735934
-2.52763	RECORDING	-0.04052079
-2.52763	RED	0.02815799
-2.52763	REMINDER	-0.03661407
-2.52763	REWIND	-0.04052079
-2.52763	RIGHT	-0.03922245
-2.52763	RISE	-0.04052079
-1.92557	ROOM	-0.03792021
-2.52763	SAY	-0.02333186
-2.52763	SCRIPT	-0.03661407
-2.52763	SEARCH	-0.03661407
-2.52763	SECONDS	0.02815799
-1.92557	SET	-0.07057546
-2.52763	SHELTON	0.02815799
-2.52763	SIRI	0.02815799
-2.52763	SIXTEEN	-0.03134983
-2.52763	SOMETHING	-0.03134983
-2.52763	SONOS	0.02815799
-2.52763	SOUNDCLOUD	0.02815799
-2.52763	SPIDERS	-0.04052079
-2.52763	SPOTIFY	0.02815799
-2.52763	STAND	-0.03134983
-2.52763	STAPELTON	0.02815799
-2.52763	STARDUST	-0.04052079
-2.52763	START	-0.03661407
-2.52763	STATE	-0.04181526
-2.52763	STOP	0.02815799
-2.52763	STRESSED	-0.04181526
-2.52763	SUMMER	-0.04181526
-2.52763	TAKE	-0.04052079
-2.2266	TEN	-0.04052078
-2.52763	TESTING	-0.04052079
-1.351539	THE	-0.02839587
-2.2266	THIS	-0.03661406
-2.2266	TIME	-0.03530397
-2.52763	TIMER	-0.03661407
-1.486237	TO	-0.03582891
-2.2266	TODAY	-0.04550482
-2.52763	TRAVELER	-0.03134983
-1.82866	TURN	-0.3301536
-2.52763	TWENTY	-0.04181526
-2.52763	TWO	-0.04181526
-2.2266	UP	0.05155473
-2.050509	VOICE	-0.08691774
-2.050509	VOLUME	-0.03661407
-2.52763	WANT	-0.02869358
-2.2266	WATCH	-0.02198101
-2.52763	WEATHER	-0.04181526
-2.2266	WHAT	-0.1141836
-2.2266	WHAT'S	-0.009630572
-2.52763	WILL	-0.03922245
-2.52763	WORK	0.02815799
-2.52763	YOU	-0.03134983
-2.52763	YOUR	-0.04052079
-2.52763	YOURSELF	-0.03134983
-2.52763	ZIGGY	-0.04181526

\2-grams:
-2.732193	<s> CALL
-2.732193	<s> HELLO
-1.0086	<s> HEY
-2.732193	<s> HI
-2.732193	<s> HOW
-2.732193	<s> I
-2.034075	<s> IN
-2.732193	<s> IS
-2.732193	<s> MUTE
-2.732193	<s> OK
-1.10551	<s> ON
-2.732193	<s> PAUSE
-0.6283889	<s> PLAY
-2.732193	<s> REWIND
-2.732193	<s> SEARCH
-1.10551	<s> SET	-0.1476935
-2.732193	<s> STOP
-1.0086	<s> TURN	-0.06938255
-2.034075	<s> VOLUME
-2.732193	<s> WATCH
-2.034075	<s> WHAT	-0.475604
-2.034075	<s> WHAT'S
-1.325652	A REMINDER
-1.325652	A TIMER
-1.024622	AIR CONDITIONING
-1.024622	ALARM FOR
-1.024622	ALEXA </s>
-1.325652	AM NOW
-1.325652	AM RECORDING
-1.024622	AMAZON MUSIC
-1.325652	AND FALL
-1.325652	AND THE
-1.024622	ANECHOIC CHAMBER
-1.024622	AT HOME
-1.024622	BANGALORE </s>
-1.024622	BEFORE I
-1.024622	BIEBER </s>
-1.024622	BLACK </s>
-1.024622	BLAKE SHELTON
-1.024622	BLUE GENIE
-1.024622	BOWIE </s>
-1.978865	BY BLAKE
-1.978865	BY CHRIS
-1.978865	BY DAFT
-1.978865	BY DRAKE
-1.978865	BY JUSTIN
-1.978865	BY ODB
-1.978865	BY RACHEL
-1.978865	BY TWENTY
-1.978865	BY YOU
-1.024622	CALENDAR TODAY
-1.024622	CALIBRATE THE
-1.024622	CALL MOM
-1.024622	CAME HERE
-1.024622	CAMERAS ON
-1.024622	CARIBBEAN </s>
-1.024622	CHAMBER FOR
-1.024622	CHRIS STAPELTON
-1.024622	CONDITIONING DOWN
-1.024622	DAFT PUNK
-1.024622	DAVID BOWIE
-1.024622	DINING ROOM
-1.024622	DO I
-1.024622	DOOR OPEN
-0.6275349	DOWN </s>
-1.024622	DRAKE </s>
-1.024622	DRIVE TO
-1.024622	EIGHT HOURS
-1.024622	EPISODE OF
-1.024622	ESPN </s>
-1.024622	FALL OF
-1.024622	FIRST MEETING
-1.024622	FIVE </s>
-1.024622	FLOOR LAMP
-1.024622	FOLLOWING PHRASES
-1.723593	FOR EIGHT
-1.723593	FOR PIRATES
-1.723593	FOR TEN
-1.723593	FOR TWO
-1.723593	FOR VOICE
-1.024622	FORGET BY
-1.325652	FROM MARS
-1.325652	FROM NOW
-1.024622	FRONT RIGHT
-1.024622	GARAGE DOOR
-1.024622	GENIE </s>
-1.024622	GET LUCKY
-1.024622	GOING TO
-0.8036261	GOOGLE </s>
-1.501744	GOOGLE MUSIC
-1.024622	HELLO BLUE
-1.024622	HERE TO
-1.723593	HEY ALEXA
-1.723593	HEY GOOGLE
-1.723593	HEY LOGI
-1.723593	HEY LOGITECH
-1.723593	HEY SIRI
-1.024622	HI MY
-1.024622	HOME </s>
-1.024622	HOURS FROM
-1.024622	HOW LONG
-1.025475	I AM
-1.723593	I NEED
-1.723593	I START
-1.723593	I WANT
-1.626683	IN BANGALORE
-1.626683	IN GOOGLE
-1.626683	IN ITUNES
-1.626683	IN LOGITECH'S
-1.024622	INTENDED TO
-1.723593	IS IT
-1.723593	IS ONLY
-1.723593	IS STATE
-1.025475	IS THE
-1.501744	IT IN
-1.501744	IT TAKE
-1.501744	IT TO
-1.024622	ITUNES </s>
-1.024622	JUSTIN BIEBER
-1.024622	KIDS </s>
-1.024622	LAMP </s>
-1.024622	LEAVE TO
-1.024622	LIGHT TO
-1.024622	LIGHTS </s>
-1.024622	LIKE TODAY
-0.05329508	LIVING ROOM
-1.024622	LOGI </s>
-1.024622	LOGITECH </s>
-1.024622	LOGITECH'S ANECHOIC
-1.024622	LONG WILL
-1.024622	LOVE YOURSELF
-1.024622	LUCKY BY
-1.024622	MAKE IT
-1.024622	MARS </s>
-1.325652	ME SOMETHING
-1.325652	ME TO
-1.024622	MEETING </s>
-1.024622	MINUTES </s>
-1.024622	MOM AT
-0.6275349	MUSIC </s>
-1.024622	MUTE </s>
-1.723593	MY CALENDAR
-1.723593	MY DINING
-1.723593	MY FIRST
-1.723593	MY NAME
-1.723593	MY VOICE
-1.325652	NAME I
-1.325652	NAME IS
-1.024622	NEED TO
-1.024622	NEW BLACK
-1.024622	NEXT EPISODE
-1.325652	NOW </s>
-1.325652	NOW GOING
-1.024622	NPR ON
-1.024622	ODB </s>
-1.626683	OF ORANGE
-0.9285648	OF THE
-1.626683	OF ZIGGY
-1.024622	OK GOOGLE
-2.024622	ON </s>
-2.024622	ON AMAZON
-1.326505	ON MY
-2.024622	ON PANDORA
-2.024622	ON SOUNDCLOUD
-2.024622	ON SPOTIFY
-0.5761738	ON THE	-0.2839059
-1.024622	ONE PILOTS
-1.024622	ONLY INTENDED
-1.024622	OPEN </s>
-1.024622	ORANGE IS
-1.024622	OUT BY
-1.024622	PANDORA </s>
-1.024622	PART OF
-1.024622	PAUSE </s>
-1.024622	PHRASES </s>
-1.024622	PICK UP
-1.024622	PILOTS </s>
-1.024622	PIRATES OF
-1.024622	PLATTEN </s>
-2.103804	PLAY </s>
-2.103804	PLAY CAME
-2.103804	PLAY DAVID
-2.103804	PLAY GET
-2.103804	PLAY LOVE
-2.103804	PLAY ME
-2.103804	PLAY NPR
-2.103804	PLAY STAND
-2.103804	PLAY STRESSED
-2.103804	PLAY SUMMER
-2.103804	PLAY THE
-2.103804	PLAY TRAVELER
-1.024622	PM PICK
-1.024622	PUNK </s>
-1.024622	RACHEL PLATTEN
-1.325652	RECOGNITION TESTING
-1.325652	RECOGNITION TO
-1.024622	RECORDING THIS
-1.024622	RED </s>
-1.024622	REMINDER FOR
-1.024622	REWIND TEN
-1.024622	RIGHT LIVING
-1.024622	RISE AND
-1.626683	ROOM FLOOR
-1.626683	ROOM LIGHT
-1.626683	ROOM LIGHTS
-1.626683	ROOM SONOS
-1.024622	SAY THE
-1.024622	SCRIPT IS
-1.024622	SEARCH FOR
-1.024622	SECONDS </s>
-0.9285648	SET A
-1.626683	SET ALARM
-1.626683	SET VOLUME
-1.024622	SHELTON </s>
-1.024622	SIRI </s>
-1.024622	SIXTEEN BY
-1.024622	SOMETHING BY
-1.024622	SONOS </s>
-1.024622	SOUNDCLOUD </s>
-1.024622	SPIDERS FROM
-1.024622	SPOTIFY </s>
-1.024622	STAND BY
-1.024622	STAPELTON </s>
-1.024622	STARDUST AND
-1.024622	START I
-1.024622	STATE YOUR
-1.024622	STOP </s>
-1.024622	STRESSED OUT
-1.024622	SUMMER SIXTEEN
-1.024622	TAKE ME
-1.325652	TEN MINUTES
-1.325652	TEN SECONDS
-1.024622	TESTING THIS
-2.200714	THE AIR
-2.200714	THE CARIBBEAN
-2.200714	THE FOLLOWING
-2.200714	THE FRONT
-2.200714	THE GARAGE
-2.200714	THE KIDS
-1.502596	THE LIVING	0.3450996
-2.200714	THE NEW
-2.200714	THE NEXT
-2.200714	THE RISE
-2.200714	THE SCRIPT
-2.200714	THE SPIDERS
-2.200714	THE VOICE
-2.200714	THE WEATHER
-1.325652	THIS IN
-1.325652	THIS PART
-1.325652	TIME DO
-1.325652	TIME IS
-1.024622	TIMER FOR
-2.066015	TO CALIBRATE
-2.066015	TO DRIVE
-2.066015	TO FORGET
-2.066015	TO LEAVE
-2.066015	TO MAKE
-1.367898	TO MY
-2.066015	TO RED
-2.066015	TO SAY
-2.066015	TO WATCH
-2.066015	TO WORK
-0.6275349	TODAY </s>
-1.024622	TRAVELER BY
-1.723593	TURN CAMERAS
-0.2751438	TURN ON	-0.4681379
-1.723593	TURN THE
-1.024622	TWENTY ONE
-1.024622	TWO PM
-1.325652	UP </s>
-1.325652	UP THE
-1.501744	VOICE BEFORE
-0.8036261	VOICE RECOGNITION
-1.501744	VOLUME DOWN
-1.501744	VOLUME FIVE
-1.501744	VOLUME UP
-1.024622	WANT TO
-1.325652	WATCH ESPN
-1.325652	WATCH THE
-1.024622	WEATHER LIKE
-0.6275349	WHAT TIME
-1.325652	WHAT'S ON
-1.325652	WHAT'S THE
-1.024622	WILL IT
-1.024622	WORK </s>
-1.024622	YOU BY
-1.024622	YOUR NAME
-1.024622	YOURSELF BY
-1.024622	ZIGGY STARDUST

\3-grams:
-0.1282164	THE LIVING ROOM
-0.1249387	TURN ON THE
-0.4292465	<s> SET A
-0.3043077	ON THE LIVING
-0.2218488	<s> TURN ON
-0.1282164	<s> WHAT TIME

\end\
